{"conv1.weight": [[[[-0.21316936612129211, 0.16932179033756256, -0.09596335887908936], [-0.20358146727085114, 0.19163799285888672, 0.14561717212200165], [-0.15930809080600739, 0.09997989237308502, 0.0938025489449501]], [[-0.21062208712100983, -0.19196385145187378, -0.15132150053977966], [-0.0012142600025981665, 0.07811590284109116, 0.1257285177707672], [0.0733252689242363, 0.17492857575416565, -0.24008727073669434]], [[0.20295265316963196, 0.12061595916748047, 0.17237544059753418], [0.18122120201587677, 0.03888653963804245, -0.1194176897406578], [0.19349147379398346, 0.19747111201286316, -0.1784783899784088]]], [[[0.19603170454502106, -0.06784629076719284, 0.19228817522525787], [0.017469914630055428, 0.13440664112567902, 0.03123832680284977], [0.10738993436098099, 0.04954400658607483, 0.16455191373825073]], [[0.10568958520889282, 0.1974492371082306, 0.20063792169094086], [-0.06047637015581131, 0.09139782935380936, 0.07147538661956787], [-0.0255912933498621, 0.20381344854831696, -0.06139799579977989]], [[-0.007084325887262821, 0.13339568674564362, 0.1926608383655548], [-0.03744307905435562, 0.162570521235466, -0.14860841631889343], [0.0009719537920318544, -0.102247454226017, -0.09811169654130936]]], [[[-0.19696511328220367, 0.14413541555404663, -0.031114540994167328], [0.08134759962558746, 0.1744430512189865, -0.08335348963737488], [0.14676237106323242, 0.15296050906181335, 0.09827054291963577]], [[-0.20142588019371033, -0.017203286290168762, -0.13419030606746674], [0.02273549884557724, 0.08161355555057526, -0.13801714777946472], [0.20579367876052856, 0.17884263396263123, -0.06382051855325699]], [[0.036404188722372055, -0.05972694605588913, 0.0061273155733942986], [0.10325050354003906, -0.04221191257238388, -0.12415941804647446], [0.12337592244148254, 0.13796108961105347, -0.13692477345466614]]], [[[0.1725456863641739, 0.09720064699649811, 0.22901466488838196], [-0.13559244573116302, -0.061992209404706955, -0.05995864048600197], [-0.14589639008045197, 0.089438296854496, -0.02726403996348381]], [[0.20580889284610748, -0.1860281378030777, 0.23388779163360596], [0.021836424246430397, 0.12561814486980438, 0.08660274744033813], [-0.20914700627326965, 0.09827148914337158, -0.061646465212106705]], [[-0.1347064971923828, 0.13901236653327942, -0.07506927847862244], [-0.15838363766670227, 0.18399737775325775, 0.040231212973594666], [-0.15816384553909302, 0.012897615320980549, 0.19642597436904907]]], [[[-0.04778119921684265, 0.09226888418197632, -0.12255958467721939], [-0.10620489716529846, 0.02445790357887745, 0.0648564025759697], [0.06667674332857132, 0.18479132652282715, 0.1332753747701645]], [[-0.1656303107738495, 0.035140156745910645, 0.01989240013062954], [-0.1662905365228653, 0.09673453867435455, 0.014208854176104069], [-0.02802807278931141, -0.04072263836860657, 0.18715207278728485]], [[-0.15609247982501984, -0.01369613315910101, 0.01845666579902172], [-0.18096314370632172, -0.0790465846657753, -0.1087682917714119], [-0.18467412889003754, 0.07317177951335907, 0.18672381341457367]]], [[[-0.1726916879415512, -0.05714407563209534, 0.23010961711406708], [-0.11494981497526169, -0.015006211586296558, -0.11305776238441467], [0.164419025182724, -0.08125179260969162, 0.21932484209537506]], [[-0.2201218158006668, -0.0862310454249382, 0.20044711232185364], [-0.13705171644687653, 0.024600958451628685, -0.04696753993630409], [0.11517156660556793, -0.05707942321896553, 0.08831212669610977]], [[0.0017310449620708823, -0.03359229862689972, 0.05576711520552635], [-0.1620589941740036, 0.06894269585609436, 0.1671760231256485], [0.17642036080360413, -0.10160692036151886, -0.08411652594804764]]], [[[0.1316620260477066, -0.08590981364250183, -0.13014215230941772], [-0.09673778712749481, 0.102971151471138, 0.09942695498466492], [0.11965175718069077, 0.20144616067409515, 0.058488938957452774]], [[-0.05758645385503769, -0.21155188977718353, -0.11920729279518127], [0.13462503254413605, -0.073537677526474, -0.14717431366443634], [-0.18192435801029205, 0.017189286649227142, -0.0014405017718672752]], [[0.00157849898096174, 0.019317472353577614, -0.050062570720911026], [0.07488056272268295, 0.06666446477174759, 0.17898300290107727], [-0.010480943135917187, 0.06407579779624939, 0.12834741175174713]]], [[[0.2295789122581482, 0.18035319447517395, -0.13239409029483795], [-0.19725920259952545, 0.23915283381938934, 0.17120617628097534], [-0.025388099253177643, -0.13647404313087463, 0.18200746178627014]], [[0.14382168650627136, -0.09630189090967178, 0.017688604071736336], [-0.15273836255073547, 0.03796308860182762, 0.09945900738239288], [0.11460179835557938, -0.12134350091218948, 0.22441528737545013]], [[0.004594665020704269, -0.012793436646461487, 0.1313188225030899], [-0.004784727469086647, -0.05146612972021103, 0.19383712112903595], [-0.05403103679418564, 0.07057659327983856, -0.11877436935901642]]], [[[0.20047487318515778, -0.041354551911354065, -0.1166304349899292], [0.1756921410560608, 0.013034742325544357, 0.20761947333812714], [0.18290971219539642, 0.0736631453037262, 0.1931075006723404]], [[-0.05160921439528465, -0.08033540844917297, 0.20044176280498505], [-0.09571587294340134, 0.17019715905189514, 0.03618265315890312], [0.16661995649337769, 0.18421189486980438, -0.04178748279809952]], [[-0.12918224930763245, 0.08022736757993698, 0.053761523216962814], [-0.040180984884500504, -0.17710933089256287, -0.043958768248558044], [0.14931845664978027, 0.0067683313973248005, 0.04111558943986893]]], [[[-0.02862800844013691, 0.15545621514320374, 0.054480455815792084], [-0.0027134132105857134, 0.21550515294075012, -0.04505745321512222], [0.032805636525154114, -0.044121745973825455, 0.01016121357679367]], [[0.07471103966236115, -0.1294759064912796, 0.20080718398094177], [-0.14577090740203857, 0.21586871147155762, -0.15933643281459808], [0.2112385332584381, -0.1571986973285675, 0.014588478021323681]], [[0.09786926954984665, 0.008866537362337112, -0.01675487495958805], [0.12016378343105316, -0.004140728153288364, 0.09136448800563812], [-0.06343444436788559, -0.0683731660246849, 0.05319971218705177]]], [[[-0.0679805651307106, 0.1615101546049118, -0.04950951784849167], [-0.1273050308227539, -0.145659402012825, 0.21864576637744904], [-0.07838931679725647, -0.09469139575958252, 0.1522177755832672]], [[-0.22545640170574188, -0.08179229497909546, 0.05755603313446045], [-0.006279970519244671, -0.18946659564971924, -0.09365366399288177], [0.07831186056137085, 0.09936694800853729, 0.15147477388381958]], [[0.02188814803957939, 0.061564866453409195, -0.157020702958107], [0.03455457463860512, 0.17719534039497375, -0.08714283257722855], [0.16036184132099152, 0.09273308515548706, -0.11027206480503082]]], [[[0.0045327297411859035, 0.09742419421672821, 0.1638372540473938], [-0.03270336613059044, 0.0191554706543684, 0.040735118091106415], [-0.1913338005542755, -0.008101291954517365, 0.2545415163040161]], [[-0.12519319355487823, 0.11920389533042908, 0.024668391793966293], [-0.15521010756492615, 0.09682644158601761, -0.02966558374464512], [-0.15765821933746338, 0.25255000591278076, 0.03700194135308266]], [[-0.039737503975629807, -0.1277923285961151, -0.032613977789878845], [0.04659772664308548, 0.055223215371370316, 0.071490079164505], [0.1636456400156021, 0.19316412508487701, 0.016093803569674492]]], [[[0.001310946885496378, 0.12359221279621124, -0.13474446535110474], [-0.08363480120897293, 0.05188395082950592, -0.16581110656261444], [0.20725317299365997, 0.1489342600107193, -0.011223478242754936]], [[-0.09699303656816483, -0.11231166124343872, -0.02351187728345394], [0.13626781105995178, -0.13180534541606903, -0.031195133924484253], [-0.2142741084098816, 0.18411831557750702, -0.11215075105428696]], [[0.03046761266887188, -0.03248768299818039, -0.079691581428051], [-0.02263408713042736, 0.08890549093484879, 0.048392150551080704], [-0.10603423416614532, -0.09152378141880035, -0.12043064832687378]]], [[[0.2581476867198944, -0.18107308447360992, 0.15631946921348572], [0.22756490111351013, -0.12717294692993164, 0.043214086443185806], [-0.04254894331097603, 0.2302536815404892, -0.0023607409093528986]], [[0.17301350831985474, -0.11357227712869644, 0.13370345532894135], [-0.14266961812973022, 0.14427554607391357, -0.17875830829143524], [-0.1623723953962326, -0.08826687186956406, 0.07574726641178131]], [[0.010170145891606808, -0.13706406950950623, -0.10874183475971222], [0.08686412870883942, 0.005375026259571314, -0.0023425971157848835], [0.10282009094953537, 0.00713718356564641, 0.037617284804582596]]], [[[0.21431800723075867, 0.136686310172081, 0.08621802181005478], [-0.03710109367966652, -0.13119862973690033, -0.10122787952423096], [0.020200764760375023, 0.11288581043481827, 0.27963748574256897]], [[0.060479238629341125, -0.03763554245233536, -0.025503698736429214], [0.1952812671661377, 0.2188892364501953, 0.20100492238998413], [-0.13817745447158813, 0.016441451385617256, 0.13807383179664612]], [[0.11724168062210083, -0.0839749127626419, 0.02373400144279003], [-0.03537294641137123, -0.09954991191625595, -0.05733304098248482], [0.17357462644577026, 0.009470376186072826, -0.1344325840473175]]], [[[0.15268202126026154, -0.021806076169013977, 0.19126220047473907], [-0.07026124000549316, -0.14850351214408875, 0.18494264781475067], [-0.1987667977809906, 0.22748251259326935, 0.125244602560997]], [[-0.01352696679532528, -0.06527911871671677, 0.1383543610572815], [0.05397285521030426, 0.16239389777183533, 0.057222478091716766], [-0.16875137388706207, -0.07694845646619797, -0.21683545410633087]], [[0.13217110931873322, 0.12381117045879364, 0.13458579778671265], [-0.0019198332447558641, -0.11493595689535141, -0.06716301292181015], [0.13262367248535156, 0.056562330573797226, 0.0592673197388649]]], [[[0.2422531694173813, -0.18284283578395844, 0.10781918466091156], [0.10830292105674744, -0.02585303597152233, 0.0323670357465744], [0.15154670178890228, -0.10134656727313995, -0.11182834208011627]], [[0.07813934236764908, 0.022907918319106102, 0.1361239105463028], [-0.07695348560810089, 0.11764296889305115, -0.12270927429199219], [-0.03526302054524422, -0.06324229389429092, -0.21357722580432892]], [[-0.05156799778342247, -0.07430781424045563, -0.05515521764755249], [-0.042134758085012436, -0.022947046905755997, 0.12493287026882172], [-0.0873698741197586, 0.09907590597867966, 0.058936212211847305]]], [[[0.0988587886095047, 0.07500119507312775, 0.10705690085887909], [-0.18504022061824799, -0.08642954379320145, 0.17530901730060577], [-0.1253305971622467, 0.046802107244729996, 0.10577061772346497]], [[-0.04353424906730652, -0.09985487163066864, 0.08736148476600647], [-0.12889672815799713, 0.053228478878736496, 0.2465694099664688], [0.13081565499305725, 0.11657115817070007, 0.07298590242862701]], [[0.10105000436306, -0.11799624562263489, -0.08249819278717041], [0.0029370025731623173, 0.02568252943456173, -0.13182462751865387], [0.07119408994913101, 0.11312804371118546, 0.07594379037618637]]], [[[0.1384608894586563, 0.08556776493787766, -0.043294742703437805], [0.17616066336631775, -0.004429813474416733, -0.17230014503002167], [0.11044449359178543, -0.0034025022760033607, 0.1499333530664444]], [[-0.02349677123129368, -0.02398093231022358, -0.17672543227672577], [-0.1960432082414627, -0.11496314406394958, -0.2067052721977234], [0.08774526417255402, 0.1962253749370575, -0.15451565384864807]], [[-0.09498224407434464, 0.05783933028578758, -0.13765646517276764], [-0.14911940693855286, 0.13923917710781097, 0.09251908957958221], [0.004422448109835386, 0.05729182809591293, -0.10321524739265442]]], [[[-0.06712264567613602, 0.21131300926208496, -0.21464867889881134], [0.0457637682557106, 0.08604341000318527, 0.15959857404232025], [0.2128753811120987, -0.19039055705070496, 0.009076781570911407]], [[0.18807896971702576, 0.23673637211322784, 0.01576203852891922], [0.20578277111053467, 0.0051009817980229855, 0.012836179696023464], [0.09372784197330475, -0.17165398597717285, 0.1022491455078125]], [[0.11516889184713364, 0.04290037602186203, -0.12075695395469666], [0.11801451444625854, 0.1562282294034958, -0.027914198115468025], [0.14119179546833038, 0.028137704357504845, -0.17482635378837585]]], [[[-0.07937932759523392, 0.2269551306962967, 0.08059223741292953], [-0.1252819150686264, -0.127363920211792, -0.09430817514657974], [0.20079940557479858, 0.133822962641716, -0.03344627097249031]], [[0.10945423692464828, 0.205609992146492, 0.1393970102071762], [-0.08516152203083038, -0.04959806427359581, 0.20999690890312195], [-0.012073488906025887, -0.04377305135130882, 0.13582439720630646]], [[0.19268004596233368, 0.008666416630148888, -0.04857170209288597], [0.06635447591543198, -0.1494247019290924, -0.14538893103599548], [0.05112658441066742, 0.16225609183311462, 0.0645422711968422]]], [[[-0.18508873879909515, -0.14115476608276367, -0.15712441504001617], [-0.12585820257663727, 0.1715305894613266, 0.1082100048661232], [0.0777055099606514, -0.011740646325051785, -0.09363727271556854]], [[-0.19704569876194, -0.08076489716768265, -0.06483794748783112], [0.06882244348526001, -0.046723559498786926, 0.008698901161551476], [0.1135849803686142, -0.09085004031658173, 0.1877613067626953]], [[-0.06846681237220764, -0.0053830696269869804, 0.17356452345848083], [-0.06893514841794968, 0.17400525510311127, -0.07427023351192474], [-0.10461490601301193, 0.0089715626090765, -0.08294061571359634]]], [[[-0.11366384476423264, 0.0936533734202385, -0.0012593829305842519], [0.17151907086372375, -0.07894022762775421, -0.15098775923252106], [-0.1415061056613922, -0.09373985230922699, -0.04031382501125336]], [[-0.005399270914494991, 0.05192136764526367, 0.17574110627174377], [0.09098763763904572, 0.13961118459701538, 0.0006218439084477723], [0.10240700840950012, -0.14032763242721558, 0.19219699501991272]], [[-0.06256755441427231, -0.11901046335697174, -0.1559830754995346], [0.000545173417776823, -0.0779712051153183, -0.010321738198399544], [-0.12192633748054504, -0.14813297986984253, 0.16538280248641968]]], [[[-0.1477321833372116, -0.10104644298553467, 0.15205836296081543], [-0.1357635110616684, -0.11386825889348984, 0.07228453457355499], [-0.1131313368678093, -0.16226762533187866, -0.1115424707531929]], [[-0.2016596645116806, 0.06335899978876114, -0.1503419429063797], [0.21263214945793152, -0.10866587609052658, 0.24564988911151886], [0.1610475480556488, 0.2563307583332062, 0.1881115734577179]], [[-0.1319511979818344, -0.0706305131316185, -0.023845389485359192], [0.12427441030740738, -0.06565727293491364, -0.06410256028175354], [0.047684166580438614, 0.1309071034193039, 0.11354167759418488]]], [[[-0.1505039632320404, -0.12055353820323944, -0.12599466741085052], [-0.10024372488260269, -0.07348288595676422, 0.1495339274406433], [-0.15982824563980103, 0.047760725021362305, 0.22770138084888458]], [[0.1817367821931839, 0.04899897798895836, -0.10269714146852493], [0.21616162359714508, -0.1328468918800354, -0.03403496369719505], [-0.03938194364309311, -0.15394887328147888, 0.2126488834619522]], [[-0.09087110310792923, -0.010807185433804989, -0.1696067452430725], [-0.010220544412732124, -0.15512146055698395, -0.06200610101222992], [0.05255478620529175, 0.1290672868490219, -0.20223842561244965]]], [[[0.05581719055771828, 0.08609522879123688, 0.15608543157577515], [-0.1977982372045517, 0.19502751529216766, -0.09792688488960266], [-0.05377207696437836, -0.13022349774837494, 0.24960753321647644]], [[-0.18243445456027985, -0.11051972955465317, 0.22178947925567627], [-0.19020135700702667, 0.12313111126422882, 0.12447920441627502], [0.10371779650449753, -0.10871239751577377, 0.19427110254764557]], [[-0.08881610631942749, 0.05111755058169365, -0.12057380378246307], [0.18401582539081573, -0.16199924051761627, -0.004068099893629551], [-0.04327087104320526, 0.07426881790161133, 0.022833172231912613]]], [[[0.18624073266983032, -0.040321651846170425, -0.18238116800785065], [-0.008400307036936283, -0.055907875299453735, -0.16694645583629608], [0.12605242431163788, 0.18497565388679504, -0.24090631306171417]], [[0.17979298532009125, -0.1628100425004959, -0.05679614841938019], [-0.015526490285992622, 0.08916877210140228, 0.20419685542583466], [-0.008276077918708324, -0.013105897232890129, -0.17914070188999176]], [[-0.11381523311138153, -0.08514823019504547, 0.04911831393837929], [0.15653963387012482, -0.09851805865764618, -0.15159521996974945], [0.21362513303756714, 0.04618721455335617, 0.004572677426040173]]], [[[0.16754566133022308, 0.017302392050623894, -0.012390567921102047], [0.26046693325042725, -0.12715238332748413, -0.027813775464892387], [0.15328986942768097, 0.016323568299412727, 0.06354919075965881]], [[-0.07656446844339371, -0.02846703492105007, -0.1894764006137848], [0.013177426531910896, -0.2098802626132965, -0.016919001936912537], [0.09813489019870758, -0.18936140835285187, 0.1777985543012619]], [[-0.12338399142026901, 0.12000271677970886, -0.07824040204286575], [0.221981942653656, 0.24731817841529846, -0.12846261262893677], [0.0596025176346302, -0.13266193866729736, -0.06243697181344032]]], [[[-0.1894967257976532, 0.11303111910820007, -0.09789241850376129], [-0.028383249416947365, 0.22641532123088837, 0.05459457263350487], [0.13741011917591095, 0.2380007952451706, 0.014179768972098827]], [[0.10759111493825912, -0.06940571963787079, 0.06629998236894608], [-0.07360506802797318, 0.054846517741680145, -0.08291833847761154], [0.05972279608249664, 0.05709976330399513, -0.1095360517501831]], [[0.09187325090169907, 0.1034429743885994, -0.11336787045001984], [0.15210707485675812, 0.1463961899280548, 0.13317255675792694], [-0.040450602769851685, -0.02184358797967434, 0.09016813337802887]]], [[[0.208466574549675, 0.18096740543842316, -0.1646209955215454], [0.1430657058954239, 0.03436591476202011, 0.20940065383911133], [0.0017887114081531763, -0.026495374739170074, 0.009062622673809528]], [[0.13782347738742828, 0.14905112981796265, -0.2186623364686966], [-0.11241016536951065, 0.08622023463249207, 0.18420852720737457], [0.061275117099285126, -0.01902713254094124, -0.14976590871810913]], [[0.004278822336345911, -0.00764076504856348, 0.14285966753959656], [0.05689427629113197, -0.16635504364967346, -0.03001602366566658], [-0.0028324229642748833, 0.05709940567612648, 0.1976720541715622]]], [[[0.06496979296207428, -0.08073399215936661, 0.15679605305194855], [-0.1660541146993637, 0.054066386073827744, 0.04037287086248398], [0.12347124516963959, -0.11794181168079376, 0.2341316193342209]], [[0.2144596427679062, -0.1872263252735138, 0.1311536282300949], [-0.14138589799404144, -0.03088124841451645, -0.03026321716606617], [-0.1334073543548584, -0.0947498008608818, -0.1797424554824829]], [[0.04810535907745361, 0.08342645317316055, 0.02036210708320141], [-0.09746694564819336, -0.06360846012830734, -0.0729106068611145], [0.2013212889432907, -0.12886932492256165, 0.10219607502222061]]], [[[-0.12947118282318115, 0.08783626556396484, 0.18293988704681396], [-0.014076955616474152, -0.23857474327087402, -0.1782492697238922], [-0.13331802189350128, -0.19722920656204224, 0.1611211746931076]], [[-0.13367269933223724, -0.06497342139482498, 0.007017460651695728], [-0.023330742493271828, -0.09397236257791519, 0.13472138345241547], [-0.17857791483402252, -0.04745974391698837, -0.09435335546731949]], [[-0.08524827659130096, 0.20691008865833282, -0.00488142529502511], [0.09995149075984955, -0.07051045447587967, 0.1966697722673416], [0.11670921742916107, 0.03704429045319557, 0.11793874949216843]]], [[[-0.15391328930854797, -0.13979627192020416, -0.18415187299251556], [-0.2434736043214798, -0.012271012179553509, -0.08223482221364975], [0.005716889165341854, -0.18540720641613007, 0.08507324010133743]], [[0.1444132775068283, 0.22236770391464233, 0.034127093851566315], [0.056165359914302826, 0.1548091471195221, 0.15907150506973267], [0.14853917062282562, -0.09787096083164215, -0.1922113448381424]], [[-0.11631102114915848, -0.09988722950220108, 0.1455734819173813], [0.03509607911109924, -0.06135139241814613, 0.1955285221338272], [-0.12950000166893005, -0.1456434577703476, -0.14518043398857117]]], [[[-0.12608683109283447, -0.03594693914055824, -0.06777320057153702], [-0.15339507162570953, 0.1558765321969986, 0.005206412635743618], [-0.05392676219344139, -0.05778426304459572, 0.02777113951742649]], [[0.12517480552196503, -0.09172114729881287, -0.06641289591789246], [-0.054737649857997894, 0.1470109522342682, -0.26815593242645264], [-0.07068601995706558, 0.16716252267360687, -0.2439945489168167]], [[-0.07598401606082916, -0.0741375982761383, -0.1076168343424797], [-0.14610420167446136, 0.16324974596500397, 0.181208074092865], [-0.0008419606019742787, 0.12598055601119995, -0.0021026304457336664]]], [[[0.10948903113603592, -0.08145207911729813, -0.15982869267463684], [-0.1675291359424591, 0.1310463398694992, 0.0537264458835125], [0.16762365400791168, 0.13732291758060455, -0.1818767935037613]], [[0.146462544798851, 0.1269710510969162, 0.19690652191638947], [-0.20995308458805084, 0.013301515951752663, -0.1616620421409607], [0.10901038348674774, 0.147107794880867, -0.1064809188246727]], [[-0.13454470038414001, 0.1372918337583542, -0.09938647598028183], [0.2044949233531952, -0.11692389845848083, -0.08063788712024689], [-0.013073104433715343, -0.015572015196084976, 0.16736666858196259]]], [[[-0.00499216141179204, -0.07300566881895065, 0.07060925662517548], [-0.07337106019258499, 0.06723058968782425, 0.09391675144433975], [-0.045874807983636856, 0.12058629840612411, 0.09157678484916687]], [[-0.13242679834365845, 0.1028192937374115, 0.072697713971138], [-0.07975403219461441, -0.03613187000155449, -0.08124691992998123], [0.2400427758693695, 0.1302400380373001, -0.14615817368030548]], [[0.04184411093592644, 0.07643160223960876, -0.14489077031612396], [0.03506181016564369, 0.12663662433624268, -0.09483169764280319], [0.1169288381934166, -0.0937454029917717, 0.19172382354736328]]], [[[0.021030984818935394, -0.15140210092067719, 0.23148028552532196], [0.07302292436361313, -0.1972472071647644, 0.19075235724449158], [-0.20502762496471405, -0.1487535834312439, -0.04678060859441757]], [[-0.12525944411754608, -0.11409874260425568, 0.19975368678569794], [-0.0755128487944603, 0.11884015053510666, 0.04539890214800835], [-0.19689464569091797, -0.19091841578483582, -0.07484603673219681]], [[0.1807931363582611, 0.1490352749824524, 0.11839701235294342], [0.1628023087978363, 0.030998848378658295, 0.10805917531251907], [-0.15908508002758026, 0.12748068571090698, -0.06765033304691315]]], [[[-0.13458096981048584, -0.11717886477708817, -0.03713337332010269], [-0.0531032457947731, 0.1733817458152771, 0.04006240889430046], [-0.21401125192642212, 0.17398439347743988, 0.2443343997001648]], [[0.14983846247196198, 0.022338511422276497, 0.04592442139983177], [0.14959436655044556, 0.22633495926856995, -0.20972472429275513], [-0.03168432414531708, -0.11353322863578796, 0.21242870390415192]], [[0.08169960230588913, 0.046879470348358154, 0.1348816603422165], [-0.06119972839951515, 0.059225015342235565, -0.06767154484987259], [-0.1332349330186844, 0.12035191804170609, 0.1725165843963623]]], [[[0.04246165603399277, -0.15780392289161682, 0.2363036423921585], [0.1102496013045311, -0.14927490055561066, 0.07827728241682053], [0.027670852839946747, -0.08236640691757202, 0.17654715478420258]], [[0.1355777531862259, -0.10324455052614212, 0.13154461979866028], [-0.013636843301355839, -0.029179899021983147, 0.195683091878891], [0.14511771500110626, -0.09552286565303802, 0.17489361763000488]], [[0.11016127467155457, 0.15135318040847778, -0.12729494273662567], [0.048785001039505005, 0.1208893284201622, 0.061067115515470505], [-0.19220857322216034, 0.17135366797447205, 0.0510769784450531]]], [[[-0.06767305731773376, 0.21532897651195526, 0.1670989990234375], [0.02509068325161934, 0.15269649028778076, -0.10388946533203125], [0.0015715392073616385, 0.21397627890110016, 0.1564837247133255]], [[0.11597396433353424, 0.13883651793003082, 0.1584295779466629], [0.10652031004428864, 0.118511863052845, 0.15586884319782257], [-0.09156566113233566, -0.039907507598400116, 0.006515950430184603]], [[0.10668697208166122, -0.1496862918138504, 0.1641101837158203], [0.01977020688354969, -0.09640294313430786, -0.16631455719470978], [-0.14378294348716736, -0.010341399349272251, 0.17106619477272034]]], [[[0.20182307064533234, 0.015330066904425621, -0.19868355989456177], [0.09266011416912079, -0.07062318921089172, -0.04472477361559868], [0.19341817498207092, -0.1216009333729744, -0.14918966591358185]], [[0.011907801032066345, 0.08363616466522217, -0.20929935574531555], [-0.10213956981897354, -0.10607094317674637, 0.0628797858953476], [-0.04546784609556198, 0.2155265212059021, 0.038446664810180664]], [[0.018476082012057304, 0.02067241445183754, 0.2044554352760315], [-0.15811608731746674, -0.07932695746421814, -0.1678503453731537], [0.03400849550962448, -0.09076890349388123, 0.20316939055919647]]], [[[-0.09058717638254166, -0.02421090565621853, -0.14658980071544647], [0.12303213030099869, -0.029822323471307755, -0.049074623733758926], [-0.1286352127790451, 0.117749884724617, -0.0538485087454319]], [[-0.10627373307943344, 0.17559555172920227, 0.1846894472837448], [-0.01397555973380804, -0.19931669533252716, 0.14499697089195251], [0.06217460706830025, 0.22702249884605408, 0.06962528824806213]], [[-0.12550422549247742, 0.17919068038463593, -0.004001191351562738], [0.09711698442697525, -0.028647487983107567, 0.1902465969324112], [-0.18810532987117767, 0.04652855917811394, 0.13080020248889923]]], [[[0.031052986159920692, 0.09129494428634644, 0.1456126719713211], [-0.06372914463281631, 0.2272169589996338, -0.04974949732422829], [0.06238304451107979, 0.1617724597454071, 0.06445269286632538]], [[0.005631626583635807, -0.09515291452407837, 0.058214813470840454], [-0.047896869480609894, 0.1470358967781067, 0.14769648015499115], [0.04755621775984764, 0.06374161690473557, 0.15745550394058228]], [[0.1508360356092453, 0.05118126794695854, 0.17356762290000916], [0.15662510693073273, 0.11921320110559464, -0.11588980257511139], [0.1433229297399521, -0.03515341505408287, -0.08736449480056763]]], [[[0.08076035976409912, 0.11787887662649155, -0.060999177396297455], [-0.20638425648212433, -0.06144550070166588, 0.05221663787961006], [-0.1925630271434784, -0.08173009753227234, 0.13286730647087097]], [[-0.151173397898674, 0.18908104300498962, 0.18079997599124908], [0.15604519844055176, 0.1688447743654251, 0.04475453495979309], [-0.20880144834518433, -0.20431482791900635, -0.13889414072036743]], [[0.02704092115163803, 0.15884827077388763, 0.08839958906173706], [0.18225131928920746, -0.005541891325265169, -0.04563070461153984], [0.1335223764181137, 0.04016770422458649, 0.0001461307256249711]]], [[[0.12143008410930634, 0.1665426790714264, -0.13297417759895325], [-0.11921408772468567, 0.0063993437215685844, -0.12734375894069672], [0.15879222750663757, -0.1361042708158493, 0.18679210543632507]], [[0.09763181209564209, -0.07835086435079575, -0.17714981734752655], [-0.1385984718799591, -0.014350472949445248, -0.1537116914987564], [0.16578491032123566, -0.10390563309192657, 0.1430007964372635]], [[0.1295216828584671, -0.0997699424624443, 0.12266287952661514], [-0.14171536266803741, -0.04334353283047676, -0.07189252227544785], [-0.11108379065990448, -0.14917926490306854, -0.13527758419513702]]], [[[0.15008997917175293, -0.11814828217029572, 0.05105464532971382], [0.2979154884815216, 0.17509816586971283, -0.19003325700759888], [0.23181313276290894, -0.08105574548244476, 0.12951897084712982]], [[0.18109869956970215, 0.1569865643978119, 0.12541638314723969], [0.14194510877132416, 0.05408048629760742, 0.05605200305581093], [0.019917922094464302, 0.07514151185750961, 0.2234245240688324]], [[-0.08744654059410095, 0.046166419982910156, -0.07734153419733047], [0.07596087455749512, -0.06301666051149368, -0.04436005651950836], [-0.0016758199781179428, 0.0260932594537735, 0.19971393048763275]]], [[[0.20397979021072388, 0.11615624278783798, -0.038697801530361176], [0.18074075877666473, 0.12110865116119385, -0.10600882023572922], [-0.1511712223291397, 0.1658778041601181, -0.029553774744272232]], [[-8.451848771073855e-06, 0.20507150888442993, 0.08604703098535538], [0.14442647993564606, -0.0008580617723055184, -0.10489318519830704], [-0.14825482666492462, 0.1285126954317093, -0.0013603747356683016]], [[0.051135603338479996, -0.14085380733013153, 0.03537202626466751], [0.06572624295949936, -0.05060187727212906, -0.031148727983236313], [0.1470947563648224, -0.007346038240939379, 0.1821313351392746]]], [[[0.027971645817160606, -0.1685851812362671, -0.027631549164652824], [0.09155039489269257, -0.16474129259586334, 0.012933083809912205], [0.13545575737953186, 0.10841166973114014, -0.010285990312695503]], [[-0.19847455620765686, 0.058525871485471725, 0.010021491907536983], [0.15841111540794373, 0.1799895167350769, -0.21034051477909088], [-0.12826861441135406, 0.005156469997018576, -0.017399339005351067]], [[-0.1285739690065384, -0.09742886573076248, -0.1579599231481552], [-0.059296343475580215, -0.1737048476934433, -0.1731080859899521], [-0.04449295252561569, -0.009147696197032928, -0.01899508386850357]]], [[[0.05205228924751282, -0.029541807249188423, 0.17602522671222687], [0.03994213044643402, 0.07604838907718658, -0.03514055907726288], [0.019177842885255814, -0.13768845796585083, 0.029056182131171227]], [[0.10821279883384705, 0.18071144819259644, -0.17800994217395782], [0.1535142958164215, 0.12534797191619873, -0.21352845430374146], [0.22734639048576355, 0.05455949902534485, -0.028072498738765717]], [[0.15019209682941437, 0.03656565770506859, 0.13363605737686157], [-0.04977870360016823, 0.03413349390029907, 0.0021218135952949524], [0.17145651578903198, -0.08142717182636261, -0.0628851056098938]]], [[[-0.032325323671102524, 0.14272071421146393, -0.019961467012763023], [0.040384627878665924, 0.0002263913193019107, 0.08335366100072861], [0.12567825615406036, 0.1388016939163208, -0.07088087499141693]], [[0.2149629145860672, 0.1947610080242157, 0.0986533910036087], [0.042968835681676865, -0.11765528470277786, 0.14069215953350067], [-0.055583406239748, 0.07111039757728577, 0.17840664088726044]], [[-0.17843671143054962, -0.05241628736257553, 0.023738151416182518], [-0.1948922723531723, 0.10278279334306717, 0.05592925101518631], [0.05280488729476929, 0.15407422184944153, -0.1649237424135208]]], [[[0.16900737583637238, 0.14862671494483948, -0.19794483482837677], [0.04530603438615799, 0.12175735831260681, -0.1607937067747116], [-0.01256988663226366, 0.20771002769470215, -0.1940910518169403]], [[-0.08303388953208923, -0.17769987881183624, 0.0818009153008461], [-0.0902579128742218, -0.029581712558865547, -0.10959254205226898], [0.16886374354362488, -0.14271847903728485, -0.050891291350126266]], [[0.18852223455905914, 0.13786166906356812, -0.013125290162861347], [-0.1608492136001587, -0.1322859227657318, 0.002380011137574911], [0.1164400726556778, 0.1777506321668625, 0.11100979894399643]]], [[[0.05663665384054184, -0.1892685890197754, -0.0025901529006659985], [-0.06494531035423279, 0.08075456321239471, -0.1310812532901764], [-0.15545189380645752, 0.11506275832653046, -0.0012278545182198286]], [[-0.06932318210601807, -0.054401837289333344, 0.12468493729829788], [0.21829140186309814, 0.05568474531173706, -0.08934587985277176], [-0.10100480169057846, -0.1314452737569809, -0.20282453298568726]], [[0.1613961011171341, 0.06305423378944397, 0.04423736408352852], [0.17984233796596527, -0.14638060331344604, 0.10940665751695633], [-0.08251912146806717, 0.0714263990521431, 0.0808415338397026]]], [[[0.23438286781311035, 0.0374101921916008, -0.04183191433548927], [0.1743120402097702, 0.24172721803188324, -0.16661638021469116], [-0.1598866581916809, -0.13263894617557526, 0.1721685230731964]], [[-0.08532025665044785, -0.18828313052654266, -0.10827073454856873], [0.07049062103033066, 0.21562711894512177, 0.0651690661907196], [-0.0423310361802578, 0.059112172573804855, 0.06561917066574097]], [[-0.08745984733104706, 0.03710528090596199, -0.11927084624767303], [0.050938744097948074, 0.2020406275987625, 0.10355314612388611], [0.111024409532547, 0.07950258255004883, -0.04971666261553764]]], [[[0.13780348002910614, -0.09450439363718033, 0.15953728556632996], [0.042509835213422775, -0.023643776774406433, -0.02674352191388607], [0.10124168545007706, -0.18099923431873322, 0.16010935604572296]], [[0.13541366159915924, 0.16986089944839478, -0.0307609960436821], [-0.11695544421672821, 0.18668709695339203, 0.1293054223060608], [-0.057648491114377975, 0.0699077770113945, 0.23112145066261292]], [[0.09564217925071716, -0.004072905983775854, -0.05783772096037865], [-0.13140258193016052, 0.02767265774309635, 0.20919162034988403], [0.12624788284301758, -0.056836169213056564, -0.11596914380788803]]], [[[-0.15648871660232544, 0.03001846745610237, 0.1365969330072403], [0.038318321108818054, 0.15001645684242249, -0.23734796047210693], [-0.04347722604870796, 0.13592103123664856, 0.05795775726437569]], [[0.18527677655220032, -0.17409078776836395, 0.18754373490810394], [-0.128662109375, -0.07266432046890259, -0.11745990067720413], [0.024559669196605682, -0.05466518551111221, 0.20608358085155487]], [[0.10174228250980377, 0.09521839022636414, 0.033139072358608246], [-0.017482012510299683, 0.05910457670688629, -0.029089298099279404], [0.11210156977176666, 0.05745351314544678, 0.09074986726045609]]], [[[0.019051553681492805, 0.17601275444030762, -0.13840745389461517], [0.15750563144683838, 0.084041528403759, 0.06855618208646774], [-0.12355378270149231, -0.024298081174492836, 0.11316019296646118]], [[0.22115500271320343, 0.10345854610204697, 0.09963840991258621], [-0.04683974012732506, 0.06361602246761322, -0.14936141669750214], [0.21684116125106812, -0.12997691333293915, -0.12392588704824448]], [[0.05338957905769348, 0.006663179956376553, -0.09655071049928665], [-0.013642802834510803, -0.10781440138816833, 0.05241154506802559], [-0.16167974472045898, 0.18602371215820312, 0.18754783272743225]]], [[[0.07912399619817734, -0.1617443859577179, -0.05335722863674164], [0.15931829810142517, -0.16822464764118195, -0.12640035152435303], [0.1902252435684204, -0.14917556941509247, -0.049674395471811295]], [[0.18052572011947632, -0.21540342271327972, -0.18174712359905243], [0.10254016518592834, -0.02383084036409855, 0.03692310303449631], [0.06731296330690384, -0.04597388952970505, -0.16120709478855133]], [[-0.028728049248456955, -0.16438616812229156, -0.0685163214802742], [0.16870583593845367, 0.051282040774822235, 0.1437271684408188], [0.12113745510578156, -0.12548813223838806, 0.03247547149658203]]], [[[0.1292732059955597, 0.05295855179429054, -0.14774154126644135], [-0.1041763573884964, -0.11955847591161728, 0.11133122444152832], [0.22621113061904907, -0.07293838262557983, -0.0189440306276083]], [[-0.19184406101703644, -0.10082844644784927, 0.13514353334903717], [-0.11435027420520782, -0.14802566170692444, 0.10441184043884277], [-0.06943314522504807, -0.1866914927959442, 0.22000393271446228]], [[0.07649093866348267, -0.027962002903223038, -0.06321731954813004], [0.1580839604139328, -0.02689213864505291, 0.015529150143265724], [-0.14735475182533264, 0.05958499386906624, 0.0840255543589592]]], [[[0.06443413347005844, 0.2629029154777527, -0.21156983077526093], [0.07990490645170212, -0.163701131939888, -0.06843295693397522], [-0.08459874987602234, 0.1257467120885849, 0.11680436134338379]], [[-0.2098076045513153, 0.04562738537788391, -0.20116013288497925], [0.02278675138950348, 0.026460034772753716, 0.12260869145393372], [-0.17412711679935455, 0.10202205181121826, 0.17637677490711212]], [[0.022772343829274178, -0.14401833713054657, 0.20108097791671753], [-0.003852247027680278, 0.09470910578966141, -0.09811635315418243], [-0.1018681526184082, 0.14391885697841644, 0.09553635865449905]]], [[[0.1157761961221695, -0.1634214222431183, -0.12959079444408417], [0.22459736466407776, -0.03818536177277565, 0.05569327250123024], [0.18959075212478638, -0.1379694938659668, 0.2099064588546753]], [[0.1721159666776657, -0.18433068692684174, 0.07052542269229889], [0.10179368406534195, 0.2030113786458969, 0.14037661254405975], [0.14841903746128082, 0.1286836713552475, -0.1021970584988594]], [[0.17596152424812317, 0.019540168344974518, 0.06780200451612473], [-0.03743431344628334, 0.06004122644662857, -0.10896372050046921], [0.03831163048744202, 0.1307765692472458, -0.04556632414460182]]], [[[-0.19666752219200134, -0.20030653476715088, -0.20621471107006073], [-0.18096552789211273, -0.11049916595220566, 0.17665065824985504], [-0.18915769457817078, -0.18505336344242096, -0.0028963759541511536]], [[-0.18070805072784424, 0.00974053330719471, -0.0633283406496048], [-0.1570894420146942, -0.2119189351797104, 0.14087575674057007], [-0.0569070465862751, -0.21774400770664215, -0.1777154952287674]], [[-0.004862818401306868, -0.04495301470160484, -0.13907550275325775], [0.12694151699543, 0.11216234415769577, -0.06231299787759781], [0.12727698683738708, -0.14600583910942078, -0.17337413132190704]]], [[[-0.11433206498622894, -0.17139460146427155, -0.1386939436197281], [0.15672989189624786, -0.14615897834300995, 0.23943117260932922], [-0.17827707529067993, -0.026635747402906418, -0.05376814678311348]], [[-0.14250826835632324, 0.15962815284729004, -0.07839235663414001], [-0.16199328005313873, 0.21311214566230774, 0.2499719262123108], [-0.06267329305410385, -0.10617674142122269, -0.18124128878116608]], [[0.08094915002584457, -0.20463204383850098, 0.1524949073791504], [-0.027614638209342957, 0.1632245033979416, 0.13709789514541626], [-0.1634996086359024, -0.16789698600769043, -0.034260064363479614]]], [[[0.08308640867471695, -0.20807744562625885, 0.12585090100765228], [0.06260582059621811, 0.15409107506275177, 0.21901662647724152], [-0.0019108230480924249, 0.21759432554244995, -0.22618547081947327]], [[0.03623271360993385, -0.17285485565662384, -0.00017834152095019817], [-0.015893876552581787, -0.0069656651467084885, 0.10081501305103302], [-0.19771026074886322, 0.0586555041372776, -0.14447282254695892]], [[-0.07838873565196991, -0.07037901878356934, 0.14219436049461365], [0.11736755818128586, -0.1650269329547882, 0.15171483159065247], [0.1275581419467926, 0.08428117632865906, -0.05315236374735832]]], [[[0.038298897445201874, 0.16817837953567505, -0.10972943156957626], [0.025775110349059105, 0.006107449997216463, 0.15627121925354004], [0.06159387156367302, -0.11683343350887299, -0.002008895855396986]], [[-0.010067606344819069, 0.1390959918498993, -0.006317714229226112], [0.045160550624132156, -0.18523432314395905, -0.006026158574968576], [0.1478826105594635, -0.20064698159694672, 0.14905326068401337]], [[-0.17157471179962158, 0.007931108586490154, 0.19080203771591187], [-0.19304388761520386, 0.14114542305469513, 0.10858514904975891], [0.1408262997865677, 0.05711106210947037, 0.10148897767066956]]]], "conv1.bias": [0.13283245265483856, -0.11182218044996262, 0.2142089605331421, 0.0003223563835490495, 0.09572632610797882, 0.00838105846196413, 0.19257035851478577, 0.07264941185712814, -0.17686337232589722, 0.020801257342100143, 0.17169661819934845, -0.11369969695806503, 0.1523188352584839, 0.04048159345984459, 0.06917676329612732, -0.052158206701278687, 0.09462930262088776, 0.0017427129205316305, 0.02030128799378872, 0.14657704532146454, -0.0003668381250463426, 0.21514494717121124, 0.08275461196899414, -0.04081038013100624, -0.06512803584337234, 0.04737072065472603, 0.11830489337444305, 0.12921416759490967, 0.20853610336780548, -0.045824140310287476, -0.0013188977027311921, -0.1594151258468628, 0.01030759047716856, 0.22400327026844025, 0.07254894822835922, -0.10899301618337631, 0.22667701542377472, -0.09478092193603516, -0.1615382581949234, 0.07565023750066757, 0.09396644681692123, -0.13376879692077637, -0.16645695269107819, 0.2107095867395401, 0.05656140297651291, 0.009779668413102627, -0.07480760663747787, 0.06605655699968338, -0.047440055757761, 0.10970113426446915, 0.002906286856159568, 0.06664977967739105, -0.04715385660529137, -0.13559895753860474, -0.16927185654640198, -0.12824368476867676, 0.20630298554897308, 0.00980626605451107, 0.15372759103775024, 0.06647476553916931, 0.2030102014541626, -0.006530699785798788, 0.22618505358695984, 0.10890305042266846], "conv2.weight": [[[[0.031247485429048538, -0.03637101128697395, -0.028365230187773705], [-0.00953590590506792, 0.009394115768373013, 0.013410137966275215], [-0.016197938472032547, -0.0021114684641361237, 0.029955102130770683]], [[0.0021150694228708744, -0.00882366206496954, -0.005945166572928429], [-0.027714304625988007, -0.022396177053451538, -0.016215646639466286], [0.023979656398296356, 0.044294118881225586, -0.0403326041996479]], [[-0.013943931087851524, -0.027363697066903114, -0.03930019587278366], [0.009662281721830368, -0.015436295419931412, -0.015957098454236984], [-0.03818334639072418, -0.04874112829566002, 0.017642920836806297]], [[0.03310985490679741, -0.031650107353925705, -0.044702041894197464], [-0.027516186237335205, -0.03239819034934044, -0.020330296829342842], [0.03655332699418068, -0.04779163375496864, -0.007648212369531393]], [[-0.007742166984826326, -0.01790992170572281, -0.04164532199501991], [0.031119532883167267, -0.01135485153645277, -0.01797536574304104], [-0.01037275418639183, -0.007841825485229492, 0.02222996950149536]], [[0.01088732946664095, -0.00725352531298995, 0.00588837219402194], [0.033732544630765915, -0.03653017431497574, -0.048301227390766144], [-0.034610386937856674, -0.006600602995604277, -0.0020522307604551315]], [[0.022205492481589317, 0.019520319998264313, 0.008651532232761383], [-0.02743176929652691, 0.012114702723920345, 0.00202270713634789], [0.020078251138329506, 0.018220623955130577, 0.010318194516003132]], [[0.001224192907102406, -0.02537573128938675, 0.021724827587604523], [0.024044260382652283, 0.01962817646563053, -0.0429760217666626], [0.018702568486332893, 0.007977604866027832, 0.02389632537961006]], [[-0.01258896291255951, 0.010124978609383106, -0.01543350052088499], [0.005243620835244656, 0.033264998346567154, 0.00410293648019433], [0.005386045668274164, -0.03490031138062477, 0.03007444180548191]], [[-0.03353513032197952, -0.04386119171977043, 0.021943336352705956], [-0.04123859480023384, -0.015131402760744095, -0.021739128977060318], [0.02570270746946335, 0.009655543603003025, -0.041579850018024445]], [[0.0006614363519474864, -0.0074788304045796394, 0.008193383924663067], [-0.021611342206597328, -0.04869278520345688, -0.02675677090883255], [-0.034055501222610474, 0.02805391512811184, -0.03774256631731987]], [[0.032230399549007416, -0.046713732182979584, -0.03998829424381256], [0.04215846210718155, -0.02343842200934887, -0.03082970716059208], [-0.03560464829206467, 0.04424706846475601, -0.01786874048411846]], [[-0.039713580161333084, -0.04592299088835716, -0.01770157925784588], [0.020476803183555603, -0.02120000682771206, 0.005840439815074205], [-0.012663650326430798, -0.015084221959114075, -0.0411672405898571]], [[-0.00401510251685977, 0.022641798481345177, -0.03096131421625614], [-0.032293736934661865, 0.027106037363409996, -0.026746008545160294], [-0.024524705484509468, 0.006340953521430492, -0.016549572348594666]], [[-0.008912986144423485, -0.013696295209228992, -0.037491243332624435], [-0.04394969344139099, -0.043310459703207016, -0.03829857334494591], [0.018990561366081238, -0.034959547221660614, -0.014611074700951576]], [[-0.006282202899456024, 0.019785035401582718, -0.03790736198425293], [0.016921591013669968, -0.02573128417134285, 0.009386812336742878], [0.0187821127474308, -0.0387493260204792, 0.03243992477655411]], [[-0.013634833507239819, -0.034991875290870667, 0.007786370813846588], [-0.03542888164520264, -0.020698681473731995, -0.007416882086545229], [-0.015747811645269394, -0.05095120146870613, 0.01770821399986744]], [[-0.024985231459140778, -0.04188678413629532, -0.018612967804074287], [0.02633613348007202, -0.029753895476460457, 0.011980927549302578], [-0.034953877329826355, -0.00849063228815794, -0.015021179802715778]], [[0.00876123271882534, -0.02009911835193634, -0.04524270072579384], [0.01828021928668022, 0.01672784425318241, -0.0310857892036438], [-0.021128317341208458, 0.03205336257815361, -0.03729664534330368]], [[0.02722090110182762, 0.026618000119924545, 0.017667360603809357], [-0.006347333546727896, -0.017478561028838158, -0.023318471387028694], [-0.011737743392586708, -0.02385047823190689, -0.04602804034948349]], [[-0.01747308112680912, 0.00897723063826561, 0.014533626846969128], [-0.04581329599022865, 0.012193026021122932, -0.04066276177763939], [0.026931751519441605, -0.008879132568836212, -0.0464228093624115]], [[0.017401186749339104, -0.0192121472209692, 0.023748787119984627], [0.036359962075948715, 0.030537176877260208, 0.041538819670677185], [0.03207825496792793, -0.040671367198228836, -0.028928788378834724]], [[0.0003712228499352932, -0.030092552304267883, 0.01898682862520218], [-0.032261237502098083, 0.03423476591706276, -0.032166045159101486], [-0.022724095731973648, 0.0007928902632556856, 0.01832401566207409]], [[-0.026615671813488007, -0.0046324171125888824, 0.01855587214231491], [0.03234513849020004, -0.04012869670987129, -0.013639220036566257], [0.01531214453279972, 0.029110200703144073, 0.039202574640512466]], [[-0.025139331817626953, 0.0013352385722100735, 0.005316660739481449], [-0.0263172909617424, 0.031840626150369644, 0.02540876716375351], [-0.021790537983179092, -0.042388882488012314, -0.034145537763834]], [[0.01770731993019581, 0.030060267075896263, 0.027663206681609154], [0.015788273885846138, -0.03821902722120285, 0.023573987185955048], [-0.02126329392194748, -0.034015439450740814, -0.04394831135869026]], [[0.0021523283794522285, -0.02744068019092083, -0.01292357873171568], [0.024729061871767044, 0.020688144490122795, -0.015278629027307034], [-0.024261562153697014, -0.04032935947179794, -0.00979925598949194]], [[0.022877296432852745, -0.006085331551730633, -0.02467072382569313], [0.007733241654932499, -0.0304533913731575, 0.032572049647569656], [0.007932735607028008, 0.030577952042222023, 0.009534706361591816]], [[-0.04099354147911072, -0.04059732332825661, 0.015676258131861687], [0.03391144424676895, -0.008779211901128292, 0.011474800296127796], [-0.028264807537198067, -0.01498711109161377, -0.036215800791978836]], [[0.013854549266397953, 0.009068550541996956, 0.006958385463804007], [-0.007915524765849113, 0.020084558054804802, -0.03521687164902687], [-0.03951628878712654, -0.028087109327316284, -0.02246060036122799]], [[-0.027771543711423874, -0.005946403834968805, -0.04184185341000557], [-0.00787110161036253, -0.0003588560502976179, -0.015328055247664452], [0.014072645455598831, 0.00666880002245307, 0.026339970529079437]], [[-0.002610993105918169, -0.012487794272601604, 0.0095375319942832], [-0.038308121263980865, -0.02699175849556923, 0.003740528365597129], [0.018961261957883835, 0.032785311341285706, -0.01342463493347168]], [[-0.013785884715616703, 0.023291585966944695, -0.0208779014647007], [-0.016820697113871574, 0.02721560001373291, 0.041096363216638565], [-0.04922983795404434, -0.010142514482140541, -0.028126345947384834]], [[0.017554491758346558, -0.025928882881999016, 0.03163524717092514], [0.01421703863888979, -0.015661781653761864, 0.033287666738033295], [-0.017880776897072792, -0.018110819160938263, -0.006778774783015251]], [[-0.04235568270087242, 0.02977871336042881, 0.00925672147423029], [0.01182604767382145, 0.012520892545580864, -0.011328719556331635], [-0.024526702240109444, -0.010101157240569592, 0.005456946324557066]], [[-0.03273870423436165, -0.02602432295680046, 0.03130420669913292], [-0.032032519578933716, 0.008900734595954418, -0.0212415661662817], [-0.04779384657740593, 0.029476284980773926, -0.025787003338336945]], [[0.023058602586388588, -0.02052716724574566, -0.026826702058315277], [-0.0032958316151052713, 0.0298271793872118, -0.02197875641286373], [-0.00403498113155365, -0.018890954554080963, 0.02677677385509014]], [[-0.0084641482681036, -0.041156016290187836, -0.03734877333045006], [0.015276673249900341, -0.03544379398226738, -0.047800462692976], [0.023088229820132256, -0.03147653862833977, 0.008628161624073982]], [[0.012280864641070366, 0.032269734889268875, -0.03131547570228577], [0.025198081508278847, -0.04374676197767258, 0.019693374633789062], [-0.03160504624247551, -0.04168776422739029, -0.011957232840359211]], [[-0.00027919310377910733, 0.005728695075958967, 0.03295387700200081], [-0.003024911507964134, -0.00311830616556108, -0.04247041791677475], [0.029673222452402115, -0.02575770579278469, -0.04918426647782326]], [[0.003930426202714443, 0.02257576584815979, 0.03567885607481003], [0.014630261808633804, -0.017274411395192146, 0.01336424145847559], [0.011416448280215263, -0.04735058173537254, -0.020179016515612602]], [[-0.022206153720617294, 0.020174643024802208, 0.018394023180007935], [0.0253550224006176, 0.005469573196023703, -0.0405593141913414], [0.02644887939095497, -0.04518943279981613, -0.022086115553975105]], [[0.0016901621129363775, -0.01105461735278368, -0.04143588989973068], [-0.002459636190906167, -0.04362772777676582, -0.008082227781414986], [-0.02905653417110443, -0.012729287147521973, -0.04286002740263939]], [[-0.02065281756222248, 0.013713755644857883, 0.031727422028779984], [-0.031046945601701736, -0.01664373092353344, 0.03442775085568428], [-0.033278170973062515, -0.007895170710980892, -0.030157113447785378]], [[-0.03211655467748642, 0.02168956957757473, 0.012487322092056274], [-0.004597472958266735, 0.021598590537905693, -0.020522242411971092], [-0.008107375353574753, -0.02856002002954483, 0.02376501075923443]], [[-0.008687215857207775, -0.009468203410506248, 0.023336447775363922], [0.0169430673122406, 0.01845845766365528, 0.01080955658107996], [-0.037914082407951355, -0.022806035354733467, 0.015549889765679836]], [[-0.01950603537261486, 0.009233157150447369, -0.03928796574473381], [-0.029610473662614822, -0.007151630707085133, -0.039141517132520676], [0.012878657318651676, 0.002328266389667988, -0.026841988787055016]], [[0.02555188536643982, 0.025754619389772415, 0.008354462683200836], [-0.026977738365530968, -0.039307694882154465, 0.038596369326114655], [0.003099409630522132, -0.010152573697268963, 0.002535169245675206]], [[-0.031715620309114456, -0.02528608962893486, -0.026622310280799866], [-0.03235950320959091, -0.01185947097837925, 0.028961746022105217], [-0.013926648534834385, 0.029069753363728523, -0.005149655044078827]], [[0.010515310801565647, 0.024273786693811417, 0.002431500470265746], [-0.009331043809652328, 0.029461130499839783, -0.043162766844034195], [-0.006515967193990946, -0.04581977799534798, 0.01708480715751648]], [[0.006418307777494192, 0.008485538884997368, 0.033952996134757996], [-0.030726060271263123, -0.02108273096382618, -0.040954310446977615], [-0.013637478463351727, 0.028116673231124878, 0.012440311722457409]], [[-0.027416955679655075, -0.036064617335796356, 0.013255753554403782], [0.0066453577019274235, -0.004124528728425503, -0.024915914982557297], [-0.033340249210596085, -0.01711997762322426, -0.03943522274494171]], [[0.003068326273933053, -0.004052921198308468, -0.03766942024230957], [-0.01243069302290678, 0.03059627115726471, 0.02966468036174774], [-0.026023242622613907, -0.03656592220067978, 0.01946345530450344]], [[-0.030546845868229866, 0.018314557150006294, 0.021267632022500038], [-0.02804487571120262, 0.027145124971866608, 0.005764760542660952], [-0.00019908492686226964, -0.019033309072256088, -0.011509536765515804]], [[0.03537368401885033, 0.02481723576784134, -0.004402759950608015], [-0.010221140459179878, -0.01157929003238678, -0.0331571027636528], [0.0025155330076813698, 0.013640139251947403, 0.020809492096304893]], [[0.007934069260954857, -0.016887778416275978, 0.019362222403287888], [-0.0374978631734848, -0.022636082023382187, -0.041437458246946335], [0.014737404882907867, -0.024357952177524567, 0.02759915217757225]], [[-0.027292173355817795, 0.03325210511684418, 0.002646279986947775], [0.023076940327882767, -0.04208804666996002, -0.028238920494914055], [0.0047518000937998295, -0.009964336641132832, -0.030546240508556366]], [[0.011791610158979893, 0.01943918503820896, -0.0052398694679141045], [-0.03529761731624603, -0.00925691518932581, 0.006892959121614695], [-0.04592958837747574, -0.03395690768957138, -0.019350528717041016]], [[-0.02678530290722847, -0.013042481616139412, 0.0032043149694800377], [-0.012217015959322453, -0.01574949361383915, 0.027081167325377464], [-0.0010772728128358722, -0.03741823881864548, 0.03367764502763748]], [[0.0029948328156024218, -0.023890621960163116, 0.02228940650820732], [0.002961208811029792, -0.031199585646390915, 0.020800016820430756], [-0.001931705279275775, 0.029638292267918587, 0.015321598388254642]], [[0.009216651320457458, -0.023208217695355415, -0.037882011383771896], [-0.0009425796451978385, 0.01231312844902277, 0.024414652958512306], [0.018413694575428963, 0.019407950341701508, -0.002094786847010255]], [[0.02216622419655323, 0.010842567309737206, 0.022416813299059868], [0.048873886466026306, 0.02579589933156967, -0.021666770800948143], [0.018780948594212532, -0.03280671313405037, -0.028846148401498795]], [[0.024797379970550537, -0.03766389563679695, 0.015903139486908913], [-0.03085959330201149, -0.025298262014985085, -0.0139785036444664], [-0.03380171209573746, -0.0185558944940567, -0.04320546239614487]], [[0.020370539277791977, -0.04563741013407707, 0.031212247908115387], [0.0007783845067024231, -0.0353083536028862, -0.02005842700600624], [-0.02689114771783352, 0.02961341105401516, -0.002128836465999484]]], [[[0.04722239822149277, -0.06426437199115753, 0.002390839857980609], [-0.0014076601946726441, -0.021031608805060387, -0.007795735262334347], [0.005049607250839472, -0.030046094208955765, 0.054636355489492416]], [[0.0017661837628111243, -0.0493658185005188, 0.02746167965233326], [0.05229930579662323, 0.021490180864930153, 0.02898300439119339], [-0.015808427706360817, -0.02540353685617447, -0.030050422996282578]], [[0.06372414529323578, -0.03450710326433182, -0.02570263110101223], [0.0747881531715393, -0.008766901679337025, -0.007072481792420149], [0.042858634144067764, -0.044477466493844986, 0.03646872192621231]], [[0.023375129327178, 0.00642973929643631, 0.01981413923203945], [0.004704555496573448, -0.004416413605213165, -0.03966169431805611], [-0.05208723619580269, 0.0420379601418972, 0.008059759624302387]], [[-0.006377527955919504, -0.0121372165158391, 0.06758125871419907], [0.017283126711845398, 0.002191327977925539, 0.03164902701973915], [-0.005737890489399433, -0.034474194049835205, 0.07466939836740494]], [[-0.049591079354286194, 0.05130818113684654, 0.09461808949708939], [0.04891347140073776, 0.030381888151168823, 0.04869695380330086], [-0.01984507218003273, 0.10084046423435211, 0.09022342413663864]], [[0.04172535613179207, -0.02742399089038372, 0.002110422356054187], [0.048274215310811996, 0.031046506017446518, 0.03972833976149559], [0.028354385867714882, 0.02695903740823269, 0.026616407558321953]], [[0.008844944648444653, 0.02525101974606514, 0.02124764397740364], [-0.009043443948030472, -0.06241128593683243, 0.04029308632016182], [0.07681771367788315, 0.041696399450302124, -0.042390335351228714]], [[-0.014785646460950375, -0.009844545274972916, -0.007398188579827547], [-0.04413329437375069, 0.020561564713716507, -0.008707437664270401], [-0.0080344770103693, 0.06094270572066307, -0.04912779480218887]], [[0.012976111844182014, 0.051596611738204956, -0.03408661484718323], [0.09231380373239517, -0.008912796154618263, 0.0596904419362545], [-0.0235397070646286, 0.06290844082832336, -0.0651870146393776]], [[-0.06145581975579262, -0.002999500371515751, 0.050756100565195084], [-0.06301206350326538, -0.03279131278395653, 0.02199050597846508], [0.013519524596631527, -0.03687945380806923, 0.07036937028169632]], [[-0.06120438128709793, -0.05939134955406189, 0.036719225347042084], [-0.0024162973277270794, -0.05467672273516655, 0.005746212787926197], [-0.009429500438272953, -0.03849777579307556, 0.04110322892665863]], [[0.00016104380483739078, -0.019868165254592896, 0.007658128160983324], [-0.021194422617554665, 0.04327862337231636, -0.08363097161054611], [0.03547894209623337, -0.022257523611187935, 0.05157575011253357]], [[0.07877423614263535, 0.04260944202542305, 0.1050211563706398], [0.02275093086063862, 0.02164357900619507, 0.017457760870456696], [0.0131259486079216, 0.07093942165374756, -0.0304887518286705]], [[-0.017175504937767982, 0.05287673696875572, 0.055690158158540726], [0.05040345340967178, -0.027892809361219406, 0.0027198069728910923], [0.009741730988025665, 0.03256211802363396, -0.015752721577882767]], [[-0.0004293924430385232, -0.07076723128557205, 0.05020848661661148], [-0.0013266822788864374, -0.00496539194136858, -0.02165977843105793], [-0.016461215913295746, 0.06054180860519409, -0.0013962757075205445]], [[0.07409633696079254, 0.07351529598236084, 0.021466296166181564], [-0.03247503191232681, -0.0039471653290092945, 0.025290004909038544], [-0.08831106871366501, 0.042568884789943695, -0.052731748670339584]], [[-0.0353105403482914, 0.025336023420095444, 0.047872740775346756], [-0.012124086730182171, 0.06834052503108978, 0.05177980288863182], [-0.013402868062257767, -0.02850230410695076, 0.09374283254146576]], [[0.07805389165878296, -0.04724019020795822, 0.028214866295456886], [0.08824712038040161, 0.04486647993326187, 0.00135434337425977], [0.0991535484790802, 0.044941697269678116, 0.03899908810853958]], [[-0.01953476294875145, 0.08062884956598282, -0.03311467915773392], [0.01988399401307106, -5.140159555594437e-05, 0.04492053762078285], [0.07847588509321213, -0.04593181982636452, -0.01674782857298851]], [[0.0375385582447052, 0.01183442585170269, -0.011420460417866707], [-0.026486080139875412, 0.018356503918766975, 0.04777698218822479], [0.02438965067267418, -0.04869438335299492, 0.0683501586318016]], [[-0.05759427696466446, -0.010155558586120605, -0.02996046654880047], [-0.024784613400697708, -0.058884117752313614, 0.07068435102701187], [-0.020400287583470345, -0.04080450162291527, -0.01139906793832779]], [[-0.050377633422613144, -0.00623921537771821, 0.04177077114582062], [0.06045063957571983, 0.0029302313923835754, 0.025558454915881157], [-0.0026681702584028244, 0.07109741866588593, 0.06962794810533524]], [[-0.014905744232237339, 0.040461257100105286, 0.036500703543424606], [-0.014669839292764664, 0.01751735992729664, -0.04315278306603432], [0.04325907304883003, -0.0008549164049327374, 0.055616892874240875]], [[-0.02391826920211315, 0.050029221922159195, 0.04722791537642479], [0.008288408629596233, -0.009151668287813663, 0.023469002917408943], [-0.017350587993860245, -0.038237154483795166, 0.08282817155122757]], [[-0.04088863730430603, 0.03552047163248062, 0.02997700870037079], [0.010686459019780159, -0.012598153203725815, 0.10750147700309753], [0.03964666649699211, 0.06734586507081985, 0.0657452791929245]], [[0.11339360475540161, 0.03196365013718605, 0.02068900503218174], [-0.02196335606276989, 0.038119666278362274, -0.0076438188552856445], [0.0925641879439354, 0.07177471369504929, -0.027400614693760872]], [[0.0002513660292606801, 0.08052901923656464, -0.030283266678452492], [0.032558247447013855, 0.06819719076156616, -0.03652965649962425], [0.010861712507903576, 0.05310817062854767, 0.055158328264951706]], [[0.04060466215014458, -0.057140741497278214, -0.013430876657366753], [0.006630817428231239, -0.0033036102540791035, -0.010084881447255611], [0.052250221371650696, -0.04073549807071686, 0.021706944331526756]], [[-0.001188848982565105, 0.026056619361042976, -0.022792762145400047], [-0.022160345688462257, 0.00416813837364316, 0.012413129210472107], [0.06058434769511223, -0.01899116486310959, -0.017003031447529793]], [[0.0012483939062803984, 0.04821249842643738, 0.05347296968102455], [0.020290765911340714, -0.018015369772911072, 0.06225571036338806], [0.02850206382572651, 0.07077164947986603, 0.0012934450060129166]], [[-0.057756468653678894, -0.006535395979881287, 0.038380954414606094], [-0.061511922627687454, -0.008796526119112968, 0.01976713351905346], [-0.009444561786949635, -0.052584048360586166, 0.002346666995435953]], [[0.026458008214831352, 0.019450504332780838, 0.02759922854602337], [0.02816811017692089, 0.017459271475672722, -0.005345622543245554], [0.0033735495526343584, -0.029876261949539185, 0.022448942065238953]], [[0.014931798912584782, -0.0374348945915699, 0.02888595685362816], [-0.029913386330008507, -0.10229838639497757, -0.013278116472065449], [0.04223150014877319, 0.005822320934385061, -0.07735009491443634]], [[0.10828065872192383, -0.029602402821183205, -0.00422055134549737], [0.057376161217689514, 0.022739242762327194, 0.047331683337688446], [0.016507407650351524, 0.024014033377170563, -0.05809435248374939]], [[0.028462547808885574, -0.013326798565685749, -0.05389218032360077], [0.041474875062704086, 0.009868335910141468, 0.022163202986121178], [-0.029499627649784088, 0.020809931680560112, 0.056888893246650696]], [[-0.03226398676633835, 0.011413962580263615, 0.03817221149802208], [-0.08611617982387543, -0.03291408345103264, -0.02536090463399887], [-0.07727309316396713, 0.006481784395873547, -0.013345064595341682]], [[-0.03616569936275482, -0.03309573233127594, 0.08159855753183365], [0.026658494025468826, -0.015738289803266525, 0.0374545119702816], [-0.023575279861688614, 0.027663294225931168, -0.030740952119231224]], [[-0.08492501080036163, 0.037358980625867844, -0.0046528298407793045], [-0.015759475529193878, 0.06994250416755676, 0.005631273612380028], [-0.0736752599477768, 0.06797666847705841, 0.0327705517411232]], [[-0.0022496087476611137, -0.024139786139130592, 0.029595017433166504], [0.028641799464821815, -0.015188058838248253, -0.04990961775183678], [-0.004647240974009037, -0.057367805391550064, 0.08077003061771393]], [[0.058908410370349884, 0.017546670511364937, 0.036498285830020905], [0.018212564289569855, 0.10696616023778915, 0.06320011615753174], [0.07578340172767639, 0.046270400285720825, -0.01635340228676796]], [[0.07727143913507462, -0.014196939766407013, -0.023884830996394157], [-0.02425217255949974, 0.018271254375576973, -0.07315456867218018], [0.008929225616157055, -0.021251052618026733, 0.0454864464700222]], [[0.014752039685845375, -0.019804516807198524, -0.04383489117026329], [0.0011430431623011827, -0.04927070066332817, 0.02293391339480877], [-0.03256717324256897, 0.0479387491941452, -0.04085933044552803]], [[-0.001122019370086491, 0.05358315259218216, 0.055573269724845886], [0.027071624994277954, -0.04985745623707771, 0.032071489840745926], [0.037944257259368896, -0.023242391645908356, 0.03496070206165314]], [[-0.00031725980807095766, 0.04150615632534027, -0.04379868507385254], [0.07502869516611099, -0.02067064493894577, 0.07666408270597458], [0.0849895104765892, 0.0029089294839650393, 0.00027418616809882224]], [[-0.015761105343699455, 0.05927921459078789, 0.008982070721685886], [0.05797330290079117, 0.02664337307214737, -0.006135549861937761], [0.02995169721543789, 0.06455016881227493, -0.02702360227704048]], [[0.055978287011384964, -0.04257776960730553, 0.05620664730668068], [0.04116681218147278, 0.007007191888988018, -0.01887873373925686], [0.03305709362030029, 0.02345851995050907, 0.024160470813512802]], [[0.06826793402433395, 0.002498751739040017, 0.047431930899620056], [-0.02461073361337185, 0.03257240727543831, 0.010753057897090912], [-0.010392174124717712, 0.03767162933945656, 0.023554304614663124]], [[0.01947426237165928, 0.06857121735811234, -0.04008498415350914], [0.0783766657114029, 0.02555643580853939, -0.018637433648109436], [-0.012232367880642414, 0.045508116483688354, -0.01865481398999691]], [[0.05080756917595863, -0.012620044872164726, 0.0598759800195694], [0.027545621618628502, 0.048787061125040054, 0.054553452879190445], [0.023744972422719002, -0.08747801184654236, 0.05432574450969696]], [[0.03343433141708374, -0.00885092094540596, -0.02486436814069748], [0.05691748857498169, 0.015659118071198463, 0.015574383549392223], [0.003807744476944208, 0.0503920279443264, -0.04138908535242081]], [[-0.00443563936278224, -0.03868509456515312, 0.014264620840549469], [0.0065545449033379555, -0.03420255333185196, -0.06755320727825165], [-0.017803750932216644, 0.006108389236032963, 0.02829345501959324]], [[-0.04003550484776497, 0.04718882590532303, 0.012948432937264442], [0.07632743567228317, -0.040411997586488724, -0.02758326195180416], [0.08714403957128525, 0.08151271194219589, -0.023379966616630554]], [[-0.10535776615142822, 0.05183830484747887, -0.03286706656217575], [-0.008075440302491188, -0.044264983385801315, 0.01131834089756012], [-0.06564071774482727, 0.017413770779967308, -0.03374716639518738]], [[-0.04715440049767494, 0.032674435526132584, 0.021359095349907875], [0.06932971626520157, -0.0018797698430716991, 0.008695311844348907], [-0.05406365543603897, 0.013383391313254833, -0.01497518178075552]], [[-0.011023099534213543, 0.03029446303844452, 0.034801606088876724], [0.029285062104463577, 0.0038487808778882027, -0.03202489763498306], [0.06899241358041763, -0.01282231044024229, -0.07666655629873276]], [[0.02102074958384037, 0.07040771096944809, -0.04604596272110939], [-0.04254753887653351, 0.020837247371673584, -0.031562257558107376], [0.038160428404808044, 0.05364523082971573, -0.03335707634687424]], [[-0.0447651669383049, 0.11659584939479828, 0.0359358973801136], [0.04565999284386635, 0.07525882124900818, 0.06471297144889832], [0.052480343729257584, 0.08391707390546799, 0.05131106078624725]], [[-0.053218793123960495, -0.05045042932033539, 0.05141448229551315], [-0.0015247449046000838, 0.05294524133205414, 0.04574895650148392], [0.06995274126529694, -0.07594217360019684, 0.07084596157073975]], [[-0.02955825813114643, 0.0679841861128807, -0.0307424608618021], [-0.011273922398686409, 0.040793176740407944, 0.023205995559692383], [-0.014988498762249947, 0.07030007243156433, -0.04095166176557541]], [[-0.06794141232967377, -0.010824044235050678, -0.020162880420684814], [-0.11346945911645889, -0.08033272624015808, 0.0002658517041709274], [-0.010599513538181782, -0.05079589784145355, -0.0035537991207093]], [[-0.007780702318996191, 0.02998652495443821, 0.09440416842699051], [-0.04062100499868393, 0.032121509313583374, 0.09082438796758652], [0.08076473325490952, 0.0059961662627756596, 0.08118530362844467]], [[0.05086541175842285, -0.06758375465869904, 0.020661141723394394], [-0.022074325010180473, -0.012118981219828129, -0.005445942748337984], [-0.015429051592946053, 0.00756284361705184, -0.0031436551362276077]], [[-0.028698498383164406, 0.06806530058383942, 0.0069160666316747665], [-0.0029722137842327356, 0.012925354763865471, 0.06351802498102188], [0.051403213292360306, -0.02798723615705967, 0.05871491879224777]]], [[[0.03961780294775963, 0.01019934844225645, -0.028242086991667747], [0.006490983068943024, -0.05634692311286926, -0.006421265192329884], [0.05118049681186676, -0.03129753842949867, 0.03678344190120697]], [[0.049268271774053574, -0.04341502487659454, 0.020304664969444275], [-0.03088149055838585, -0.018523724749684334, -0.0009360611438751221], [0.016158239915966988, -0.02991313673555851, -0.002713654423132539]], [[0.013352448120713234, 0.03254326060414314, -0.013378988020122051], [0.02086053602397442, 0.0013216444058343768, -0.004084163811057806], [0.03972313180565834, 0.005709486082196236, 0.05761375650763512]], [[-0.02338981442153454, -0.05618681386113167, 0.0024017763789743185], [0.010824873112142086, -0.03244125843048096, -0.00436495803296566], [-0.08027855306863785, -0.029869988560676575, 0.011903182603418827]], [[-0.009892486035823822, -0.014848464168608189, -0.0166900884360075], [-0.04067475348711014, -0.008701431564986706, 0.07701072841882706], [0.010471463203430176, -0.041418083012104034, 0.027335189282894135]], [[-0.06555864214897156, -0.06968121975660324, 0.0011275948490947485], [-0.05713731795549393, -0.019915280863642693, -0.0525931790471077], [-0.009177584201097488, -0.12403585761785507, 0.07745228707790375]], [[0.053990960121154785, -0.012069370597600937, 0.0006114460411481559], [0.04337267577648163, 0.005048389080911875, 0.010294278152287006], [-0.009922399185597897, 0.04815945029258728, 0.0016766833141446114]], [[0.022717690095305443, -0.006238553673028946, -0.04244738444685936], [-0.042761243879795074, -0.010548907332122326, -0.02939457632601261], [0.03124135732650757, -0.00492757698521018, -0.006653142627328634]], [[-0.013149218633770943, -0.013138657435774803, 0.0012601471971720457], [-0.015569714829325676, 0.02515854500234127, -0.04756074398756027], [-0.04554475471377373, 0.056122083216905594, -0.020294617861509323]], [[0.03048662655055523, 0.04044231027364731, -0.07267819344997406], [0.06826184689998627, -0.0038023926317691803, -0.023227883502840996], [0.05130213126540184, -0.047593630850315094, -0.021737409755587578]], [[-0.05679481476545334, -0.028982985764741898, 0.03353603556752205], [0.03171319141983986, -0.015056155622005463, 0.01898159831762314], [0.03411809355020523, 0.08070388436317444, 0.06295705586671829]], [[-0.009940130636096, -0.030892042443156242, 0.0013221923727542162], [-0.012401401996612549, -0.045412562787532806, 0.03506488353013992], [-0.0049082147888839245, -0.02514602802693844, -0.014009538106620312]], [[0.0742088109254837, 0.07210962474346161, -0.011516585946083069], [0.017907345667481422, 0.0699354037642479, -0.026752764359116554], [0.01721922494471073, 0.0732540562748909, 0.023570897057652473]], [[0.033369291573762894, -0.03027672879397869, 0.04417181387543678], [-0.021566521376371384, 0.04949794337153435, 0.09195317327976227], [-0.0372796505689621, 0.004854033701121807, 0.03245863690972328]], [[0.032701242715120316, -0.018473640084266663, 0.04650590196251869], [0.010703183710575104, -0.021376848220825195, 0.02953997440636158], [-0.05541568249464035, 0.03634311631321907, -0.05877441167831421]], [[0.0706741139292717, -0.06274694949388504, -0.007984769530594349], [0.0509469173848629, -0.033589918166399, 0.03526430204510689], [-0.07158876210451126, 0.005500132218003273, 0.04857630282640457]], [[-0.026070568710565567, 0.030260402709245682, 0.021175837144255638], [0.005971231497824192, 0.07587860524654388, 0.026108097285032272], [-0.03130386397242546, 0.03748166561126709, 0.05038638785481453]], [[0.017956245690584183, -0.021011024713516235, -0.053094588220119476], [-0.0310190599411726, -0.07219631224870682, 0.04804949462413788], [-0.09602900594472885, -0.015108986757695675, 0.022062215954065323]], [[-0.016513513401150703, -0.0552518293261528, 0.009652232751250267], [-0.034695252776145935, 0.015741964802145958, 0.030945146456360817], [-0.0187064316123724, 0.02740088477730751, -0.01664874143898487]], [[-0.0020910019520670176, 0.026278994977474213, -0.012267566286027431], [0.044866323471069336, 0.04533712565898895, -0.03063805401325226], [-0.007472923491150141, -0.02492869459092617, 0.0046119969338178635]], [[-0.057486481964588165, -0.03428629785776138, -0.035146165639162064], [0.023579606786370277, 0.030914518982172012, 0.017383867874741554], [-0.03038950450718403, 0.027086185291409492, -0.01619727350771427]], [[0.005099630448967218, 0.05120156705379486, 0.058606334030628204], [-0.03916751593351364, 0.025144504383206367, -0.02022692561149597], [0.008960575796663761, 0.006292964797466993, 0.06492843478918076]], [[0.012294042855501175, 0.05360930413007736, 0.06299637258052826], [0.04809410497546196, 0.0428607352077961, 0.00343026383779943], [0.028692394495010376, -0.035617366433143616, 0.02597169019281864]], [[-0.04125763103365898, -0.0017147880280390382, -0.01758643426001072], [-0.08376509696245193, -0.049084607511758804, -0.04365980997681618], [-0.03977126628160477, -0.005548334680497646, -0.028582539409399033]], [[0.009557850658893585, 0.034583598375320435, 0.005353492684662342], [-0.0033545291516929865, 0.05497691407799721, -0.026980824768543243], [0.0011540005216374993, -0.012684468179941177, -0.06493338197469711]], [[-0.036641038954257965, -0.05521627515554428, 0.04701761528849602], [-0.012233107350766659, 0.050860628485679626, -0.03137759491801262], [-0.02301126904785633, -0.06785064935684204, 0.04913755878806114]], [[0.013742298819124699, 0.039604805409908295, -0.004529978148639202], [0.04790997877717018, 0.035904865711927414, 0.08549840748310089], [0.003460677806288004, 0.04869088530540466, 0.020439796149730682]], [[-0.06265658885240555, 0.05313188210129738, 0.08943884074687958], [-0.0076612550765275955, 0.08428634703159332, -0.013125048950314522], [0.024629643186926842, 0.009417727589607239, 0.03748859465122223]], [[0.04548785835504532, -0.02591295912861824, -0.04070510342717171], [0.07717213034629822, -0.03962929546833038, 0.02514841966331005], [0.022483600303530693, 0.028441084548830986, 0.058595675975084305]], [[-0.013309326022863388, -0.014765419065952301, -0.08981131762266159], [-0.004895027726888657, 0.039866771548986435, 0.0008026056457310915], [-0.02246163785457611, -0.016334112733602524, -0.028701845556497574]], [[-0.03767981007695198, -0.04179177060723305, -0.038036808371543884], [-0.06489071995019913, 0.033259596675634384, 0.0018727192655205727], [-0.051955029368400574, -0.04188913479447365, -0.03093043342232704]], [[-0.00769641250371933, 0.02022089622914791, -0.0022214557975530624], [0.04620902240276337, 0.058691661804914474, 0.06118501350283623], [0.01600763015449047, 0.034827735275030136, 0.04344484582543373]], [[0.050784796476364136, 0.0336466059088707, -0.0012919522123411298], [0.03747919201850891, -0.014203155413269997, -0.031983382999897], [0.009816878475248814, -0.05093807354569435, -0.05388467386364937]], [[0.0920257568359375, -0.011165034025907516, 0.05815715342760086], [0.06505059450864792, -0.04475482553243637, 0.08056449145078659], [0.0467536523938179, 0.0462961420416832, 0.016499049961566925]], [[0.015385497361421585, -0.06356564164161682, -0.08993507921695709], [0.07815082371234894, -0.019155196845531464, -0.017367534339427948], [0.042233072221279144, 0.01149631105363369, 0.03756064176559448]], [[-0.0011270797112956643, -0.08528973907232285, -0.07957196235656738], [-0.013101769611239433, -0.08907687664031982, -0.027645908296108246], [-0.011876231990754604, -0.017639396712183952, 0.013861089013516903]], [[0.0015926690539345145, -0.03212309256196022, 0.03984824940562248], [-0.008396033197641373, 0.040449704974889755, 0.0802031010389328], [0.01720045693218708, 0.014878042973577976, 0.02800191566348076]], [[-0.028148526325821877, -0.005472006741911173, -0.0422290563583374], [-0.012727012857794762, -0.0188601054251194, -0.03643237054347992], [-0.0029796252492815256, -0.004451795946806669, 0.0026381772477179766]], [[-0.06986125558614731, 0.008176097646355629, -0.00647003622725606], [-0.0796622633934021, 0.005898108705878258, -0.011403503827750683], [-0.012291858904063702, 0.02452928200364113, -0.01196896843612194]], [[0.013434340246021748, -0.028130589053034782, -0.03059794008731842], [0.016855338588356972, -0.013331718742847443, -0.04318595677614212], [0.0267686378210783, -0.030108436942100525, -0.024902215227484703]], [[-0.008146867156028748, 0.051685478538274765, 0.01143448892980814], [-0.004358614794909954, 0.033797647804021835, -0.010453644208610058], [-0.013299551792442799, 0.04062031954526901, 0.024778930470347404]], [[-0.027858473360538483, -0.031156275421380997, -0.03550369665026665], [0.04195413738489151, 0.0039042735006660223, -0.03954354301095009], [0.0033337536733597517, 0.010376404039561749, -0.057816386222839355]], [[0.04222646355628967, 0.024867044761776924, 0.011543698608875275], [0.024487759917974472, -0.03165514022111893, -0.06778532266616821], [0.00833105854690075, -0.049575820565223694, 0.014847835525870323]], [[0.037508681416511536, -0.03135259449481964, 0.01764526218175888], [0.044078100472688675, 0.014632094651460648, 0.0663406178355217], [0.06844068318605423, 0.011986210010945797, 0.06620769202709198]], [[0.020845018327236176, 0.06896039098501205, 0.0017603717278689146], [-0.034717366099357605, 0.013422087766230106, -0.04829475283622742], [0.0496121384203434, 0.01978195086121559, 0.02136075682938099]], [[-0.007374145556241274, -0.013553029857575893, -0.012562672607600689], [-0.06444112956523895, 0.07266512513160706, -0.049413781613111496], [-0.009645776823163033, -0.037498589605093, -0.0011429046280682087]], [[-0.012512392364442348, -0.01898818649351597, 0.014154535718262196], [0.056586939841508865, 0.04852866008877754, 0.007384197786450386], [0.03312443941831589, -0.01142638549208641, -0.06619967520236969]], [[0.008546712808310986, -0.018816446885466576, -0.01150447316467762], [0.030780883505940437, 0.024817045778036118, 0.033734820783138275], [-0.023679528385400772, -0.0024140928871929646, -0.020841870456933975]], [[-0.030923280864953995, -0.021631760522723198, -0.005563493352383375], [-0.027035731822252274, -0.003836679505184293, -0.07813064008951187], [0.03695373982191086, -0.059645235538482666, -0.0029594397637993097]], [[-0.038512155413627625, -0.010438984259963036, -0.05275164544582367], [0.0318823978304863, 0.04401613399386406, 0.05127634480595589], [0.04400890693068504, 0.03829357400536537, -0.03714299947023392]], [[0.04030964523553848, 0.07507000118494034, -0.06228398531675339], [0.07077465206384659, 0.0252880547195673, -0.025355733931064606], [0.033522751182317734, 0.06760086119174957, 0.03632846474647522]], [[0.05705207213759422, -0.0007023857906460762, 0.004896181169897318], [0.05202445015311241, 0.014625436626374722, -0.02319374680519104], [0.03863250091671944, 0.050186533480882645, -0.002480644267052412]], [[0.03855382651090622, 0.050038307905197144, 0.06927450001239777], [-0.008173534646630287, 0.009368297643959522, 0.0172609630972147], [-0.019893206655979156, -0.04246757552027702, -0.030800750479102135]], [[0.01556661818176508, -0.0254068486392498, 0.07091920077800751], [-0.07853372395038605, 0.027122991159558296, -0.0567919947206974], [-0.02671932987868786, -0.01799999177455902, 0.008055593818426132]], [[-0.027288127690553665, 0.002853529527783394, -0.05234861746430397], [0.015594215132296085, 0.03796397149562836, -0.04284064844250679], [0.050573721528053284, -0.0015552425757050514, 0.00724383257329464]], [[-0.034030307084321976, 0.02542734332382679, -0.0653027817606926], [0.037705354392528534, 0.012784999795258045, -0.030109187588095665], [0.002108646323904395, -0.027102310210466385, -0.005357848014682531]], [[0.032959189265966415, 0.05872871354222298, 0.0342303104698658], [0.01883014105260372, 0.12444986402988434, -0.01569412089884281], [0.018898995593190193, 0.09194530546665192, -0.04051937907934189]], [[-0.12028385698795319, -0.0015455082757398486, 0.04474959522485733], [-0.07575669139623642, 0.07378780841827393, -0.015385123901069164], [-0.05180077254772186, 0.011199924163520336, 0.059950631111860275]], [[0.031020939350128174, 0.03879257291555405, -0.0074408152140676975], [-0.03853848576545715, -0.016620613634586334, 0.06511110067367554], [0.07216359674930573, 0.09298282116651535, -0.034285884350538254]], [[-0.004483520984649658, 0.019993316382169724, 0.04217330366373062], [-0.06349513679742813, -0.004219351802021265, -0.028385302051901817], [0.0038720860611647367, 0.01118905283510685, -0.012964887544512749]], [[0.059070516377687454, -0.0040582711808383465, 0.07088355720043182], [0.05078841745853424, 0.040661606937646866, 0.13761940598487854], [0.033763960003852844, 0.0493427999317646, 0.0951094850897789]], [[0.003942160867154598, 0.031403616070747375, -0.0029217915143817663], [-0.006857100874185562, -0.0023708813823759556, 0.09187202900648117], [-0.07965408265590668, -0.09826431423425674, -0.05048912391066551]], [[0.06237832084298134, 0.03358827903866768, -0.018798595294356346], [0.05784893035888672, -0.053497523069381714, 0.059557829052209854], [-0.02660221792757511, 0.07257314026355743, -0.02552737109363079]], [[0.005599630996584892, 0.002343871397897601, -0.04683959484100342], [0.03203049302101135, 0.01977931708097458, -0.04986633360385895], [0.07263758033514023, 0.02836131677031517, -0.0013873068382963538]]], [[[-0.026042459532618523, 0.024472707882523537, 0.014863301068544388], [-0.03987659513950348, -0.04807377606630325, -0.039424143731594086], [-0.015898048877716064, 0.016499601304531097, -0.006597921717911959]], [[0.01665523834526539, -0.006307290401309729, -0.06765739619731903], [0.020814748480916023, 0.015463481657207012, -0.02144952304661274], [-0.029310159385204315, -0.07094784080982208, -0.060392215847969055]], [[0.015291367657482624, -0.051541004329919815, -0.030224289745092392], [0.03759793937206268, 0.038249675184488297, 0.027707157656550407], [0.005836665630340576, 0.03820795938372612, -0.0158530380576849]], [[-0.012829907238483429, 0.008386651054024696, 0.026163578033447266], [0.008856445550918579, 0.048119254410266876, 0.04363732039928436], [0.03481774032115936, 0.06168895959854126, 0.01697422005236149]], [[0.03130412846803665, -0.034319546073675156, 0.04771529138088226], [0.0007786101195961237, 0.0025266415905207396, -0.00012951319513376802], [0.02049262635409832, -0.010979603044688702, -0.0025311571080237627]], [[0.0858074426651001, 0.029059886932373047, 0.08699284493923187], [0.06612211465835571, 0.0736737996339798, 0.06293969601392746], [0.055541716516017914, 0.055060893297195435, 0.036685217171907425]], [[-0.01598202809691429, -0.03758695349097252, -0.03527093678712845], [0.027288563549518585, 0.0262457188218832, -0.0428522452712059], [-0.00013725116150453687, 0.003913807217031717, -0.03141036257147789]], [[0.04838529974222183, -0.014116144739091396, 0.05690501257777214], [-0.018907485529780388, -0.03785637393593788, -0.01881173811852932], [0.048813626170158386, -0.01917232945561409, -0.03841512277722359]], [[-0.04654672369360924, -0.06777510046958923, -0.009410632774233818], [0.05205274745821953, -0.07733971625566483, -0.06163432449102402], [0.01925087906420231, -0.09907011687755585, -0.04389365762472153]], [[-0.03000086545944214, 0.011967050842940807, 0.053163494914770126], [-0.028157435357570648, 0.060502536594867706, 0.008481374941766262], [0.0007482835208065808, -0.013284847140312195, 0.02586422674357891]], [[0.052892692387104034, 0.005259200930595398, 0.00044521415838971734], [0.013668038882315159, -0.0005466675502248108, 0.026766100898385048], [0.009337104856967926, -0.017515508458018303, -0.039910875260829926]], [[0.016522759571671486, -0.007058314047753811, -0.07390685379505157], [0.03150879591703415, -0.007775489706546068, -0.08894255012273788], [-0.0283748097717762, -0.02346356399357319, -0.053155895322561264]], [[0.01883917674422264, -0.001351598184555769, -0.04585079103708267], [-0.043152280151844025, 0.016452576965093613, -0.015902316197752953], [0.00976877473294735, -0.032021764665842056, 0.011451248079538345]], [[0.020763598382472992, 0.08987448364496231, 0.011310650035738945], [0.07515637576580048, 0.06564256548881531, -0.04751264303922653], [0.046534352004528046, 0.05376502498984337, 0.06530694663524628]], [[0.05850629508495331, -0.046385616064071655, 0.008095381781458855], [0.0152999646961689, -0.04720588028430939, -0.004437224008142948], [-0.000603303371462971, 0.031535837799310684, 0.03074975498020649]], [[0.013821521773934364, -0.02140938863158226, 0.00962703675031662], [0.012270665727555752, 0.011756956577301025, -0.019042739644646645], [0.03319545462727547, 0.00841614045202732, -0.033424850553274155]], [[0.04213408753275871, -0.004536391235888004, -0.01183435507118702], [-0.034972935914993286, 0.04581267386674881, 0.0164860337972641], [0.0622885636985302, -0.0027745424304157495, 0.021346189081668854]], [[0.03211503103375435, 0.046454813331365585, 0.012407817877829075], [-0.007079435046762228, -0.01526186615228653, 0.021202238276600838], [0.060081612318754196, 0.01104745827615261, -0.022608933970332146]], [[0.025738168507814407, 0.04748113080859184, -0.02465520054101944], [0.06147528812289238, 0.05117360129952431, 0.020480690523982048], [-0.027101758867502213, 0.03175189718604088, 0.019864294677972794]], [[0.04536960646510124, -0.039251431822776794, 0.030819490551948547], [0.014530413784086704, -0.009809941984713078, -0.002572303870692849], [0.01868204027414322, -0.017409175634384155, -0.0045211538672447205]], [[0.04154641181230545, 0.03144978731870651, -0.02594633959233761], [-0.03356737270951271, 0.017401520162820816, 0.0028245423454791307], [-0.037398528307676315, -0.011418458074331284, 0.00828368030488491]], [[-0.018405938521027565, 0.019278710708022118, 0.019133083522319794], [-0.00829827506095171, 0.004477472510188818, 0.027724776417016983], [0.01337121520191431, 0.0026780576445162296, -0.03505627065896988]], [[-0.0031738169491291046, -0.040701039135456085, 0.057653263211250305], [-0.00334614678286016, 0.05269854515790939, 0.03612804040312767], [-0.015790792182087898, -0.01226736418902874, 0.04467019811272621]], [[-0.017420032992959023, 0.0320054329931736, 0.030176864936947823], [0.03459606319665909, 0.033772364258766174, -0.006687605753540993], [0.07567305117845535, 0.004708055406808853, -0.00611365120857954]], [[0.006243912503123283, -0.04174650087952614, -0.0013353110989555717], [0.002808322198688984, -0.02923501841723919, 0.03626818582415581], [0.0678146705031395, 0.05422411859035492, 0.023340094834566116]], [[0.04506500065326691, -0.024291131645441055, 0.002457182854413986], [0.07783515751361847, 0.05274834856390953, 0.011395102366805077], [0.060763880610466, 0.002894027391448617, -4.771128442371264e-05]], [[0.007444057613611221, 0.0414222851395607, 0.01941460371017456], [0.02843434363603592, 0.016454188153147697, 0.04341847449541092], [0.05137842893600464, 0.051977477967739105, 0.043055929243564606]], [[0.024564100429415703, -0.04407515004277229, -0.033534400165081024], [0.05716903135180473, -0.005108176730573177, 0.06700479239225388], [0.02673525922000408, -0.022536620497703552, 0.041644301265478134]], [[-0.03086751513183117, 0.016126243397593498, 0.002874190453439951], [0.008729706518352032, 0.042910944670438766, -0.03430166095495224], [-0.021948227658867836, -0.003721184330061078, -0.007396623957902193]], [[0.017243297770619392, -0.0017164262244477868, -0.0022025832440704107], [0.019091157242655754, -0.021222280338406563, -0.027077531442046165], [-0.007921960204839706, 0.0670754611492157, 0.02219158224761486]], [[0.13862401247024536, 0.018917152658104897, 0.09659397602081299], [0.06766315549612045, 0.07212181389331818, 0.04186456650495529], [0.027862047776579857, 0.037052687257528305, 0.09406251460313797]], [[-0.017542138695716858, -0.034023217856884, -0.030614258721470833], [-0.0072432393208146095, -0.00638231448829174, 0.004445564467459917], [-0.008419242687523365, -0.005886388011276722, -0.0301273874938488]], [[-0.01477156300097704, -0.017821848392486572, 0.016725920140743256], [0.02503378503024578, -0.003823205828666687, 0.048425380140542984], [-0.0011670469539240003, 0.0759916827082634, -0.005617260001599789]], [[0.002365726977586746, 0.021678997203707695, -0.015514460392296314], [-0.04910367354750633, -0.015299128368496895, -0.0961698591709137], [0.01322939619421959, -0.016250312328338623, -0.014993123710155487]], [[0.002713155234232545, 0.01661747694015503, -0.016565483063459396], [-0.01618230901658535, 0.036178283393383026, 0.013559648767113686], [0.015741514042019844, -0.009362521581351757, -0.004741628188639879]], [[-0.010931743308901787, 0.02796097658574581, 0.001943075330927968], [0.0060615744441747665, 0.029894843697547913, -0.030582476407289505], [-0.01731713116168976, -0.027960913255810738, -0.07310780137777328]], [[-0.006447204388678074, 0.018232136964797974, -0.013063058257102966], [0.009606797248125076, -0.05068729817867279, -0.05280964821577072], [0.035688310861587524, -0.04099978134036064, 0.002208510646596551]], [[0.020561208948493004, -0.002317868871614337, 0.03563232719898224], [0.010070853866636753, -0.004877035040408373, -0.02701667696237564], [-0.002547496696934104, 0.03705376386642456, -0.007255243603140116]], [[-0.006122185382992029, -0.06434058398008347, -0.015572004951536655], [0.05162980780005455, -0.021872758865356445, -0.004010086879134178], [0.03981473669409752, -0.08864001929759979, 0.036193788051605225]], [[-0.020920902490615845, 0.0028439380694180727, -0.005825509317219257], [-0.008079376071691513, 0.03517775237560272, -0.022193629294633865], [0.000755976012442261, 0.010973293334245682, -0.009791183285415173]], [[0.06547032296657562, 0.028840437531471252, -0.01619863696396351], [0.06287211179733276, 0.009690898470580578, 0.057199977338314056], [0.02972310222685337, 0.0632968619465828, 0.0027037207037210464]], [[-0.023131659254431725, -0.03130906820297241, 0.00590734975412488], [-0.01217094250023365, 0.03093683160841465, 0.06232369318604469], [-0.04345982149243355, -0.02433125674724579, -0.022167213261127472]], [[-0.02019469067454338, -0.004788291174918413, -0.04385633394122124], [0.02047555521130562, -0.00996795017272234, -0.009306156076490879], [-0.021958597004413605, -0.036984216421842575, 0.0033192976843565702]], [[0.03554420545697212, 0.02723146229982376, 0.010850449092686176], [-0.0639042928814888, -0.06644431501626968, -0.05053522437810898], [0.041623104363679886, -0.01844092644751072, -0.04425504058599472]], [[0.06769397854804993, -0.0015864655142650008, 0.05016498640179634], [-0.004398813936859369, -0.04439791664481163, 0.0290412325412035], [-0.03488565981388092, 0.017292020842432976, 0.04818493500351906]], [[0.05775562673807144, -0.025953633710741997, 0.026351308450102806], [0.037872783839702606, 0.035637017339468, 0.0014470929745584726], [0.0037573860026896, -0.03267852962017059, 0.0018964421469718218]], [[-0.05753424018621445, 0.003835617797449231, -0.016397330909967422], [-0.032076455652713776, 0.019932398572564125, -0.04807848110795021], [0.02141030877828598, 0.01782604120671749, -0.029246477410197258]], [[0.0344318263232708, 0.01828177459537983, 0.059166472405195236], [-0.022688468918204308, -0.015048331581056118, 0.012679769657552242], [0.02136588655412197, 0.04260312393307686, 0.06557713449001312]], [[-0.009613871574401855, -0.01887027733027935, 0.03912070766091347], [0.031223280355334282, 0.02793125808238983, -0.005223487503826618], [-0.01282342616468668, -0.04059018939733505, 0.010837988927960396]], [[-0.035871345549821854, -0.03487294539809227, -0.002695881761610508], [-0.03072681836783886, -0.03102593496441841, -0.010781260207295418], [0.018738072365522385, 0.01961609721183777, -0.013459892012178898]], [[-0.009015773423016071, -0.023639941588044167, 0.03415198251605034], [-0.011231095530092716, 0.05413513258099556, -0.011465734802186489], [0.03381359949707985, 0.03244045004248619, 0.010460179299116135]], [[0.02970951981842518, -0.005877899471670389, -0.02276899665594101], [-0.012556010857224464, -0.010950450785458088, -0.02276545763015747], [-0.026487460359930992, 0.010681821033358574, 0.04249328747391701]], [[-0.04512089118361473, -0.006926416419446468, 0.0034689372405409813], [-0.017486317083239555, -0.022507887333631516, -0.06080629676580429], [0.07029799371957779, 0.047017473727464676, 0.05936891958117485]], [[-0.07064488530158997, -0.05820418894290924, -0.003428047988563776], [0.020517535507678986, -0.016646424308419228, -0.020211627706885338], [-0.03102775849401951, -0.02581375651061535, -0.0037133621517568827]], [[-0.003374590538442135, -0.007591816131025553, 0.01708909124135971], [0.036525677889585495, -0.025273172184824944, -0.04355468600988388], [-0.05956469103693962, -0.031126737594604492, -0.04844535514712334]], [[0.005332794040441513, -0.04708612337708473, 0.011698722839355469], [-0.021268805488944054, -0.02323339320719242, 0.029100624844431877], [-0.03235320374369621, -0.016179563477635384, -0.03933844342827797]], [[0.007091223727911711, -0.0067450180649757385, 0.052689455449581146], [-0.04862533137202263, -0.029625186696648598, -0.006695536896586418], [0.013736787252128124, -0.028864173218607903, 0.013650994747877121]], [[0.10641103982925415, 0.014807483181357384, 0.12137863785028458], [0.10118182748556137, 0.015034488402307034, 0.034887269139289856], [0.08941096067428589, 0.03278247267007828, 0.025889776647090912]], [[0.001620072522200644, -0.0032591293565928936, 0.014253836125135422], [-0.009028608910739422, -0.0483003631234169, -0.027755647897720337], [0.0044487458653748035, 0.06311871856451035, -0.054365403950214386]], [[-0.0260376688092947, -0.043471310287714005, 0.03242115676403046], [0.003376743057742715, -0.034814637154340744, -0.02222030609846115], [-0.0008412032038904727, 0.007360824383795261, 0.00437908573076129]], [[-0.03713525831699371, -0.01832190528512001, -0.02638663724064827], [0.01902628131210804, -0.07502150535583496, -0.028133664280176163], [0.004746103193610907, -0.03946100175380707, -0.07373391836881638]], [[0.0016414355486631393, 0.032956864684820175, 0.020873194560408592], [0.06622443348169327, -0.02320748008787632, 0.036642469465732574], [0.05715439096093178, 0.06370455771684647, -0.00992126390337944]], [[-0.0374278798699379, 0.06134304404258728, -0.048684414476156235], [-0.020352931693196297, 0.0035404637455940247, -0.01822538860142231], [0.014737057499587536, 0.004293041303753853, 0.010143285617232323]], [[0.020072802901268005, -0.049488987773656845, -0.001895510358735919], [-0.023022672161459923, -0.0714036375284195, 0.05551435798406601], [-0.032791610807180405, -0.02023557387292385, 0.023824667558073997]]], [[[-0.05699215456843376, 0.006263296585530043, -0.027266575023531914], [-0.013285224325954914, 0.025984056293964386, 0.0117194764316082], [-0.03954089432954788, 0.012791506946086884, -0.03922765329480171]], [[-0.010839954018592834, 0.0677897036075592, 0.034276220947504044], [0.03385336324572563, 0.05614785477519035, 0.019938692450523376], [0.05934884026646614, 0.020458756014704704, 0.06650608777999878]], [[0.020933721214532852, -0.017612537369132042, 0.007047776132822037], [0.0020691617392003536, 0.05085856840014458, 0.07892462611198425], [-0.007011596579104662, 0.02001122012734413, 0.011353068985044956]], [[-0.04329767823219299, 0.06856359541416168, -0.05803418532013893], [-0.035496827214956284, -0.017392396926879883, 0.011732946150004864], [0.06528031080961227, -0.023147564381361008, 0.014567902311682701]], [[0.019438842311501503, 0.04103248938918114, -0.008732267655432224], [0.05827029421925545, 0.09057962149381638, 0.0020946699660271406], [0.03729266673326492, 0.05530509352684021, -0.033626388758420944]], [[0.027287987992167473, -0.06264092773199081, -0.10980508476495743], [-0.08560076355934143, -0.03317948803305626, -0.008324950002133846], [-0.015144171193242073, -0.004683148115873337, -0.0895247831940651]], [[-0.023743923753499985, 0.03448551893234253, 0.015788894146680832], [0.028971994295716286, 0.02495935559272766, 0.033699385821819305], [0.03257860243320465, 0.007588047068566084, -0.03586225211620331]], [[0.0595935620367527, -0.056401681154966354, -0.025581125169992447], [0.008828320540487766, 0.060089413076639175, -0.032650142908096313], [0.00027862429851666093, -0.023902110755443573, 0.03201385959982872]], [[0.0922633558511734, -0.010858952067792416, 0.025319889187812805], [0.0454573780298233, 0.02066204510629177, -0.001186441513709724], [0.02218678779900074, 0.05670106038451195, 0.07464304566383362]], [[-0.02084478922188282, -0.03535929322242737, 0.01303580030798912], [-0.06851940602064133, 0.04220167547464371, 0.00963660515844822], [0.03991550952196121, 0.04106790944933891, 0.0006545228534378111]], [[0.03691846504807472, 0.03313320130109787, 0.07381671667098999], [0.07403819262981415, 0.04386287182569504, -0.006811065133661032], [-0.035387590527534485, 0.00604399386793375, 0.005120362155139446]], [[-0.0024145147763192654, 0.0591840036213398, -0.034317243844270706], [-0.03008759208023548, 0.0033206839580088854, -0.0541364960372448], [0.01415829174220562, -0.025101788341999054, 0.01817353069782257]], [[-0.027857426553964615, 0.03860461711883545, 0.01594378799200058], [0.008089571259915829, -0.013706902042031288, 0.07606913149356842], [-0.03587934002280235, 0.02788187749683857, -0.014476398937404156]], [[-0.06278380006551743, -0.02186448872089386, -0.0176102165132761], [-0.00807398185133934, -0.05833437293767929, 0.014686431735754013], [0.04199760779738426, -0.04337096959352493, 0.058961451053619385]], [[-0.0018431429052725434, 0.05651897192001343, -0.001602776232175529], [0.02958097867667675, 0.005421946756541729, 0.01827899180352688], [-0.010132450610399246, 0.004931790754199028, 0.05016857385635376]], [[-0.03705941140651703, -0.01340202335268259, -0.01283876784145832], [0.02703954093158245, 0.036602932959795, -0.01362478919327259], [-0.022450467571616173, -0.02988240122795105, 0.01821800321340561]], [[-0.04167525842785835, -0.011520215310156345, 0.05015372112393379], [0.013252941891551018, 0.022410785779356956, 0.0002900378021877259], [0.045902471989393234, -0.00643928162753582, 0.02367590367794037]], [[-0.049524936825037, -0.0061951130628585815, 0.05549972131848335], [0.024618957191705704, 0.05942992493510246, -0.05603973567485809], [-0.01990879699587822, -0.05346634238958359, -0.0006255735061131418]], [[-0.01666247844696045, 0.026199353858828545, -0.007876547053456306], [-0.026523839682340622, -0.05334892496466637, -0.01009759958833456], [-0.04552990198135376, -0.039636384695768356, -0.004956329707056284]], [[0.04598192870616913, -0.056852634996175766, 0.049418266862630844], [-0.023399988189339638, 0.02380301244556904, -0.02918362431228161], [-0.030583210289478302, 0.02459169179201126, 0.05048128962516785]], [[-0.01970634050667286, -0.0024340795353055, 0.06793433427810669], [-0.025453554466366768, -0.01328333467245102, -0.054300952702760696], [-0.019387945532798767, 0.05671894922852516, 0.021478978917002678]], [[0.05192040279507637, -0.016478009521961212, 0.0011849615257233381], [0.022946303710341454, 0.04197212681174278, 0.021257929503917694], [0.05477680638432503, 0.03494677692651749, 0.006615611724555492]], [[0.04877578467130661, -0.026315337046980858, 0.0048324232921004295], [-0.029443759471178055, 0.023944325745105743, -0.006851069163531065], [0.04171804338693619, -0.01704356260597706, 0.014911866746842861]], [[0.043808236718177795, -0.008931898511946201, 0.030673563480377197], [0.03381660580635071, -0.03847656399011612, 0.00791105255484581], [-0.04384325444698334, 0.010155967436730862, -0.057091087102890015]], [[0.04050673916935921, -0.034710727632045746, -0.03199245035648346], [0.021351447328925133, -0.023647310212254524, -0.019890153780579567], [0.007279451470822096, 0.027187833562493324, -0.013497370295226574]], [[0.05405176058411598, -0.024545107036828995, -0.04771728441119194], [0.0026591718196868896, 0.06765612959861755, -0.015356865711510181], [-0.03327246382832527, -0.03357411548495293, -0.01987694948911667]], [[-0.07121168076992035, -0.007235995028167963, 0.04644271731376648], [-0.027651485055685043, 0.029211970046162605, 0.03295358270406723], [-0.015223447233438492, -0.096531443297863, -0.017720790579915047]], [[0.06540188193321228, 0.004719932097941637, 0.009104816243052483], [0.0005716711166314781, 0.012267153710126877, 0.07556252181529999], [-0.03865553066134453, 0.01520483661442995, 0.06506644189357758]], [[0.0008053597412072122, 0.026645267382264137, 0.05480028688907623], [0.020740045234560966, 0.06675825268030167, 0.00686426367610693], [0.03882706165313721, 0.03284416347742081, 0.019337937235832214]], [[0.023718971759080887, -0.037229303270578384, -0.025618895888328552], [-0.0032368400134146214, 0.02536788582801819, -0.0121245002374053], [-0.03651043027639389, -0.0064202710054814816, 0.05864174664020538]], [[-0.03558705747127533, -0.03850188106298447, -0.069750115275383], [-0.05826462060213089, 0.011802799999713898, -0.07024786621332169], [0.010110117495059967, -0.0646372139453888, -0.05281426012516022]], [[-0.021420834586024284, 0.030329925939440727, 0.021305209025740623], [-0.01790289767086506, 0.007884440943598747, -0.04246000200510025], [-0.03423381969332695, 0.0253108162432909, -0.06809822469949722]], [[0.03759815916419029, -0.03538770228624344, 0.03164902701973915], [0.025366734713315964, -0.03117498569190502, -0.030411148443818092], [0.02636292390525341, 0.06431540846824646, 0.05175657197833061]], [[-0.04720368608832359, 0.0920884758234024, 0.008605001494288445], [0.05151385813951492, 0.10253803431987762, -0.00924746785312891], [0.002738207345828414, -0.030896326526999474, 0.027068061754107475]], [[-0.06454791873693466, 0.014991967007517815, 0.005970912054181099], [-0.05843684822320938, 